TimeStamp,acc_x,acc_y,acc_z,cal_time,current_LW,current_RW,gyr_x,gyr_y,gyr_z,h_d,psi_dot_d,psi_dot_hat,tau_LW,tau_RW,theta_d,theta_dot_LW,theta_dot_RW,theta_dot_hat,theta_hat,v_d,v_hat,
16,0.26712465,-0.04418591,9.59285259,6.00000000,0.00000000,0.00000000,-0.00041969,0.00481037,0.00083162,0.07000000,0.00366300,0.00001052,-0.05753798,0.05827108,-0.01229746,0.00000000,0.00000000,0.00459353,-0.06696403,0.00122106,0.00034904,
26,0.41915646,-0.09087285,9.64791870,6.00000000,-0.08056641,0.11118164,-0.00001938,0.00556806,0.00313141,0.07000000,0.00366300,0.03860296,-0.04309413,0.04450928,-0.01229746,-0.37873647,0.25307274,0.00657557,-0.05078171,0.00122106,-0.02356558,
36,-0.63788360,0.16410963,10.30393028,6.00000000,-0.06445312,0.08701172,-0.02482003,0.14903902,-0.01569408,0.07000000,0.00366300,0.01042961,0.01504366,-0.01507077,-0.01229746,-0.39444441,0.37175512,0.10682170,-0.00697346,0.00122106,-0.02105399,
46,-0.04890996,-0.49070454,9.40011883,6.00000000,0.01450195,-0.01450195,0.02683018,0.17097995,0.00467661,0.07000000,0.00366300,0.01132590,0.00383793,-0.00370404,-0.01229746,-0.11519173,0.08552113,0.15070394,-0.02569624,0.00122106,0.00382998,
56,1.68209791,-0.11960326,7.55418921,6.00000000,0.00161133,0.00000000,0.03712185,0.00094712,0.01913074,0.07000000,0.00366300,0.00202524,-0.10623134,0.10769925,-0.01229746,0.01570796,-0.01221730,0.04521513,-0.11797655,0.00122106,0.00450950,
66,0.44788688,-0.06812793,10.33026600,6.00000000,-0.16435547,0.20141602,-0.03466657,-0.00954475,0.02888189,0.07000000,0.00366300,0.02843007,-0.05921020,0.06064470,-0.01229746,-0.63180918,0.54105204,0.00900741,-0.06344397,0.00122106,-0.04398895,
76,-1.51535845,0.53640801,11.04852676,6.00000000,-0.09023438,0.10957031,-0.07907961,0.39932063,-0.00080344,0.07000000,0.00366300,-0.03969185,0.05839910,-0.06010890,-0.01229746,-0.90931654,1.05592418,0.28492728,0.01913562,0.00122106,-0.05316409,
86,-0.83779943,0.33409795,9.69340897,6.00000000,0.08378907,-0.10957031,0.04785201,0.40459615,-0.01421298,0.07000000,0.00366300,0.01521446,0.08616798,-0.08707689,-0.01229746,-0.43982297,0.38746309,0.36657336,0.02919767,0.00122106,-0.00359894,
96,2.15495276,-0.23572205,7.55179501,6.00000000,0.12568359,-0.16113281,0.08346719,-0.02379419,-0.06131579,0.07000000,0.00366300,-0.00455296,-0.08279962,0.08377034,-0.01229746,0.32463124,-0.30368727,0.09008110,-0.10421738,0.00122106,0.03079664,
106,2.09270334,-0.38655674,9.63475037,6.00000000,-0.11923828,0.14501953,0.03080568,-0.20998299,-0.02560480,0.07000000,0.00366300,-0.02913280,-0.12000000,0.12000000,-0.01229746,-0.25830874,0.35953784,-0.11888126,-0.12546660,0.00122106,-0.03258288,
116,-1.45909476,0.07312997,12.52455235,6.00000000,-0.17563477,0.20786133,-0.18585178,0.27189928,-0.03477124,0.07000000,0.00366300,-0.11825155,0.03599455,-0.03914943,-0.01229746,-0.83775806,1.23220241,0.15882175,0.01450834,0.00122106,-0.06675710,
126,-2.85371733,-0.02024389,11.78234959,6.00000000,0.04995117,-0.05961914,-0.07207302,0.46538594,-0.03797486,0.07000000,0.00366300,-0.01875041,0.12000000,-0.12000000,-0.01229746,-0.75398225,0.80459678,0.37250471,0.11565010,0.00122106,-0.03100734,
136,2.07594395,0.14854732,6.43011189,6.00000000,0.17402343,-0.20947266,0.22967482,0.14209941,-0.09236263,0.07000000,0.00366300,0.10820325,-0.03142032,0.03420565,-0.01229746,-0.01570796,-0.34732053,0.20799822,-0.06958573,0.00122106,0.02847093,
146,3.64893460,-0.84145510,7.25012589,6.00000000,-0.04189453,0.05800781,0.16739303,-0.28527087,-0.05906450,0.07000000,0.00366300,0.07773066,-0.12000000,0.12000000,-0.01229746,-0.12042772,-0.12391838,-0.13852340,-0.22382134,0.00122106,-0.01041177,
156,-0.91082257,-0.82589275,11.00662804,6.00000000,-0.17724609,0.21914062,-0.11981978,0.18262875,0.01067962,0.07000000,0.00366300,-0.02232978,-0.00426532,0.00379682,-0.01229746,-0.62657320,0.70336765,0.08947654,-0.01991838,0.00122106,-0.04384622,
166,-2.39642477,0.16530673,11.39568615,6.00000000,-0.01611328,0.01450195,-0.12792495,0.33349475,0.08243295,0.07000000,0.00366300,-0.09075916,0.12000000,-0.12000000,-0.01229746,-0.60911995,0.92851520,0.26119202,0.07999343,0.00122106,-0.03868452,
176,1.43190384,0.13537921,7.02507067,6.00000000,0.17402343,-0.21108398,-0.01319790,0.20359328,0.06170871,0.07000000,0.00366300,0.02649816,-0.02435753,0.02521560,-0.01229746,0.10646509,-0.19722220,0.21746469,-0.06304958,0.00122106,0.02812651,
186,2.08192945,0.42268342,8.70340633,6.00000000,-0.04189453,0.04833984,0.05075729,-0.34991458,-0.00863265,0.07000000,0.00366300,-0.00098829,-0.11076090,0.11220325,-0.01229746,0.15533429,-0.14137168,-0.18179715,-0.09628814,0.00122106,-0.00253916,
196,-1.03053260,0.36043417,11.29512978,6.00000000,-0.16274413,0.20302734,-0.05154380,0.07965200,-0.05939310,0.07000000,0.00366300,-0.00603447,0.03911864,-0.03985085,-0.01229746,-0.50614548,0.52883476,0.00534591,0.02948575,0.00122106,-0.03901768,
206,-2.32100749,0.23593569,11.36216736,6.00000000,0.04511719,-0.06445312,0.03063023,0.25638905,-0.08161025,0.07000000,0.00366300,-0.05488059,0.12000000,-0.12000000,-0.01229746,-0.04712389,0.23561946,0.18054034,0.09230885,0.00122106,0.00297376,
216,2.12622237,-0.32071620,6.39778996,6.00000000,0.17241211,-0.21591797,0.11081800,-0.20636816,-0.06620718,0.07000000,0.00366300,-0.03940567,-0.08079807,0.08093081,-0.01229746,0.65100777,-0.52359879,-0.09403510,-0.08258583,0.00122106,0.03757989,
226,2.82293487,-0.70139426,9.02063751,6.00000000,-0.11279297,0.14501953,0.03058457,-0.51500654,-0.03977685,0.07000000,0.00366300,-0.08767523,-0.12000000,0.12000000,-0.01229746,0.22165681,0.07504916,-0.38865605,-0.15307353,0.00122106,-0.02401379,
236,-2.62746525,0.45859644,11.95233822,6.00000000,-0.17724609,0.21430664,-0.21835946,0.19343562,-0.04941583,0.07000000,0.00366300,-0.07333909,0.09598736,-0.09901197,-0.01229746,-0.64053583,0.87790060,0.02574879,0.08387466,0.00122106,-0.05588462,
246,-3.48578644,0.28262264,11.28196144,6.00000000,0.14018555,-0.17724609,-0.00270629,0.30677056,-0.02104265,0.07000000,0.00366300,-0.08139664,0.12000000,-0.12000000,-0.01229746,0.26005405,0.00872665,0.21960212,0.18051073,0.00122106,0.02628933,
256,2.15734696,0.03721695,5.04626322,6.00000000,0.18208008,-0.21914062,0.07978862,-0.26318485,-0.06574149,0.07000000,0.00366300,0.03554368,-0.00194594,0.00261960,-0.01229746,0.81506878,-0.93724179,-0.12194988,-0.00851031,0.00122106,0.05746538,
266,4.14213991,-0.21896264,8.48074532,6.00000000,0.00805664,0.00322266,0.06547440,-0.50524771,-0.08647354,0.07000000,0.00366300,0.00014348,-0.12000000,0.12000000,-0.01229746,0.89535391,-0.88488197,-0.39174378,-0.22029991,0.00122106,0.03798275,
276,-0.15186064,-0.42486399,11.89008904,6.00000000,-0.17241211,0.21591797,-0.06866401,-0.18720566,-0.03217039,0.07000000,0.00366300,-0.03983583,-0.06875417,0.06874967,-0.01229746,-0.06981317,0.20071286,-0.24260010,-0.04604447,0.00122106,-0.02877810,
286,-2.47184205,0.15333574,12.50899029,6.00000000,-0.09667969,0.13051757,-0.08439849,0.23611324,-0.00535588,0.07000000,0.00366300,-0.04467349,0.09406948,-0.09641276,-0.01229746,-0.80285144,0.95644039,0.09832811,0.07425287,0.00122106,-0.05953205,
296,-1.84456122,0.20600817,9.73171616,6.00000000,0.13535157,-0.16918945,-0.00871577,0.19120291,0.02658385,0.07000000,0.00366300,0.00118507,0.12000000,-0.12000000,-0.01229746,-0.00174533,-0.00174533,0.15971741,0.10975371,0.00122106,0.01215365,
306,2.82652617,-0.80913335,7.07056046,6.00000000,0.18369141,-0.21591797,0.09785920,-0.23081684,0.02344902,0.07000000,0.00366300,0.07006375,-0.09685723,0.09964754,-0.01229746,0.73478359,-0.96516705,-0.11822312,-0.09865408,0.00122106,0.05575153,
316,2.83251190,0.37001097,9.11161804,6.00000000,-0.13535157,0.18208008,0.04398429,-0.51223004,0.02932262,0.07000000,0.00366300,0.04591760,-0.12000000,0.12000000,-0.01229746,0.01047198,-0.15184364,-0.39253312,-0.15815480,0.00122106,-0.02370684,
326,-2.99258089,0.00609232,13.40920925,6.00000000,-0.17080078,0.21752930,-0.17165367,0.27401900,0.05981857,0.07000000,0.00366300,0.10156786,0.12000000,-0.12000000,-0.01229746,-0.96342176,0.63180918,0.08278894,0.10760322,0.00122106,-0.05446454,
336,-3.71084142,0.48253846,11.45314693,6.00000000,0.17563477,-0.21269532,0.05614006,0.30416629,0.05554226,0.07000000,0.00366300,0.04617935,0.12000000,-0.12000000,-0.01229746,0.07155850,-0.21467550,0.23451707,0.19772887,0.00122106,0.02875526,
346,2.01489186,-0.56492478,7.69425011,6.00000000,0.18369141,-0.21269532,0.07316021,-0.26067206,0.07232226,0.07000000,0.00366300,0.10085571,0.01624165,-0.01437224,-0.01229746,0.84473938,-1.17286122,-0.11701491,0.00603181,0.00122106,0.06794739,
356,4.17206764,-0.24649596,9.06133938,6.00000000,0.03061523,-0.03544922,0.00247005,-0.58057368,0.06766509,0.07000000,0.00366300,0.10688943,-0.12000000,0.12000000,-0.01229746,0.90408051,-1.24441981,-0.44358873,-0.21186917,0.00122106,0.04806303,
366,-0.05728967,-0.04298881,11.29872131,6.00000000,-0.17241211,0.20463867,-0.09474339,-0.30338117,0.11727337,0.07000000,0.00366300,-0.02188306,-0.07266949,0.07310251,-0.01229746,0.10646509,-0.02617994,-0.34067297,-0.04017889,0.00122106,-0.02088962,
376,-2.30783916,0.28262264,12.78791428,6.00000000,-0.10312500,0.13051757,-0.18899582,0.12722234,0.08412068,0.07000000,0.00366300,-0.03723194,0.07221718,-0.07409996,-0.01229746,-0.68242371,0.81681406,-0.00647983,0.06483094,0.00122106,-0.05760862,
386,-1.50099325,1.35163367,9.40969563,6.00000000,0.10473633,-0.12729493,0.02576297,0.06767365,0.01374255,0.07000000,0.00366300,0.12627454,0.10683672,-0.10558748,-0.01229746,-0.37699112,-0.04712389,0.04249601,0.08397917,0.00122106,-0.00934190,
396,2.77026248,-0.07052213,5.65917873,6.00000000,0.16113281,-0.19174805,0.33447719,-0.20552208,-0.03266168,0.07000000,0.00366300,0.14884099,-0.12000000,0.12000000,-0.01229746,0.29321530,-0.78016222,-0.13465770,-0.13167308,0.00122106,0.03062717,
406,1.96940207,-0.50028133,8.48074532,6.00000000,-0.17402343,0.21108398,0.12432928,-0.42454004,0.01599805,0.07000000,0.00366300,0.06597076,-0.12000000,0.12000000,-0.01229746,-0.48345622,0.27925268,-0.33615455,-0.13326956,0.00122106,-0.05465352,
416,-3.19967937,-0.82589275,12.88487911,6.00000000,-0.18046875,0.21108398,-0.26826885,0.33036163,0.08888113,0.07000000,0.00366300,-0.04479704,0.12000000,-0.12000000,-0.01229746,-1.04545224,1.20427716,0.13638535,0.11282241,0.00122106,-0.07532015,
426,-3.27030826,-0.06573372,10.67982006,6.00000000,0.17241211,-0.20463867,-0.12692016,0.43965518,0.10787499,0.07000000,0.00366300,-0.04279206,0.12000000,-0.12000000,-0.01229746,0.09773844,0.04886922,0.34459901,0.17833480,0.00122106,0.02809504,
436,2.17530346,0.24790670,6.82276058,6.00000000,0.18208008,-0.21591797,0.03699123,-0.18847133,0.07888376,0.07000000,0.00366300,0.08791700,0.01421119,-0.01260302,-0.01229746,0.93549645,-1.22347581,-0.03360051,-0.00649115,0.00122106,0.07968716,
446,5.10221481,0.13178791,8.85424137,6.00000000,0.02739258,-0.03867187,0.07409977,-0.52968973,0.02080741,0.07000000,0.00366300,0.09064701,-0.12000000,0.12000000,-0.01229746,0.84997535,-1.13795459,-0.38226509,-0.28289732,0.00122106,0.04662126,
456,-0.20812437,0.13777342,13.36611366,6.00000000,-0.16918945,0.20463867,0.02081937,-0.29189482,0.00803136,0.07000000,0.00366300,0.04948170,-0.06076200,0.06263449,-0.01229746,-0.13788101,-0.02094395,-0.31247962,-0.03182194,0.00122106,-0.02824856,
466,-2.10074091,-0.67505807,13.50856876,6.00000000,-0.08701172,0.11279297,-0.06739417,0.05865898,-0.02786506,0.07000000,0.00366300,0.01929518,0.04944809,-0.04973144,-0.01229746,-0.97912967,0.92851520,-0.04613176,0.04957084,0.00122106,-0.07618833,
476,-1.29509199,-0.26325536,9.79875374,6.00000000,0.06445312,-0.08217774,0.02662987,0.02767915,-0.01874923,0.07000000,0.00366300,-0.05501936,0.07807691,-0.08045922,-0.01229746,-0.38222709,0.57421333,0.00399435,0.06654849,0.00122106,-0.03614601,
486,2.74033499,-0.22015974,5.16956472,6.00000000,0.11279297,-0.14340821,0.06728334,-0.24675266,-0.02244087,0.07000000,0.00366300,0.00648613,-0.12000000,0.12000000,-0.01229746,0.25307274,-0.27750733,-0.17572461,-0.13157895,0.00122106,0.00681620,
496,0.71005195,-0.06214242,8.41011620,6.00000000,-0.17724609,0.21752930,0.00168077,-0.38985279,0.01738213,0.07000000,0.00366300,0.03103943,-0.09145496,0.09337626,-0.01229746,-0.50963616,0.41015238,-0.32372737,-0.05518738,0.00122106,-0.05969561,
506,-1.99300170,-0.11361776,10.54813862,6.00000000,-0.14340821,0.17080078,-0.13464811,0.36347568,-0.00794856,0.07000000,0.00366300,-0.04443898,0.07327485,-0.07532127,-0.01229746,-0.71383971,0.87790060,0.16143134,0.04618761,0.00122106,-0.04834916,
516,-2.74358392,0.35923707,9.94599724,6.00000000,0.10151367,-0.12568359,0.01528961,0.25939989,-0.02695325,0.07000000,0.00366300,0.00316726,0.12000000,-0.12000000,-0.01229746,0.00000000,-0.01221730,0.22654667,0.14686701,0.00122106,0.01771206,
526,2.80617547,-0.20938583,7.11006498,6.00000000,0.17724609,-0.21591797,0.11079957,-0.16728051,-0.04537909,0.07000000,0.00366300,0.02460530,-0.08174644,0.08331775,-0.01229746,0.68765974,-0.76969016,-0.05278111,-0.09054925,0.00122106,0.05149718,
536,4.09425592,0.36761677,10.54215336,6.00000000,-0.11762695,0.14501953,0.06130992,-0.47801363,-0.03689237,0.07000000,0.00366300,-0.03451525,-0.12000000,0.12000000,-0.01229746,0.24958208,-0.12566370,-0.35011846,-0.22920157,0.00122106,-0.01236546,
546,-1.92835832,-0.09446415,15.60469246,6.00000000,-0.17724609,0.21752930,-0.07554348,0.09069897,-0.04636086,0.07000000,0.00366300,0.02204646,0.04591636,-0.04610629,-0.01229746,-0.72431165,0.64926249,-0.03291503,0.04191762,0.00122106,-0.05483299,
556,-2.07201028,0.09348068,12.40723610,6.00000000,0.05639648,-0.07250977,-0.01808555,0.04518006,-0.04546545,0.07000000,0.00366300,-0.03993097,0.08242259,-0.08453760,-0.01229746,-0.26703537,0.40840703,0.02064168,0.06706814,0.00122106,-0.02417048,
566,3.29459262,-0.88095939,5.13963699,6.00000000,0.12084961,-0.14985351,0.07960353,-0.32253116,-0.01811681,0.07000000,0.00366300,-0.02056250,-0.12000000,0.12000000,-0.01229746,0.34906584,-0.28099802,-0.22358149,-0.17228666,0.00122106,0.00696263,
576,1.49415302,0.41190952,8.93085575,6.00000000,-0.18208008,0.22397462,-0.00704201,-0.57815808,-0.00038496,0.07000000,0.00366300,0.00709286,-0.12000000,0.12000000,-0.01229746,-0.36651915,0.34382987,-0.47062376,-0.11574130,0.00122106,-0.06290873,
586,-2.48381305,0.43824574,10.47750950,6.00000000,-0.18208008,0.21430664,-0.15653919,0.19240238,-0.00308587,0.07000000,0.00366300,-0.06772893,0.06712867,-0.06961051,-0.01229746,-0.79587013,1.02625358,-0.00181052,0.06142316,0.00122106,-0.06956194,
596,-4.03166437,-0.06932503,10.88212967,6.00000000,0.09023438,-0.11762695,-0.01859366,0.31829864,-0.01771762,0.07000000,0.00366300,-0.01864398,0.12000000,-0.12000000,-0.01229746,-0.32114059,0.38048175,0.22086678,0.21419591,0.00122106,-0.00991718,
606,1.51570082,-0.02263810,5.23301077,6.00000000,0.18208008,-0.21914062,0.15364380,-0.13278112,-0.05528405,0.07000000,0.00366300,0.06836762,0.05611911,-0.05551159,-0.01229746,0.54977870,-0.77841681,-0.03085937,0.03714912,0.00122106,0.04824094,
616,3.70998669,-0.44880599,8.27484417,6.00000000,0.07734375,-0.09829102,0.04123355,-0.41782632,-0.06910092,0.07000000,0.00366300,0.00758611,-0.12000000,0.12000000,-0.01229746,1.22347581,-1.23743844,-0.30525523,-0.17362824,0.00122106,0.07049792,
626,2.82054067,-0.12558877,11.56567478,6.00000000,-0.17080078,0.21269532,-0.02189632,-0.39786604,0.02316669,0.07000000,0.00366300,-0.08803935,-0.12000000,0.12000000,-0.01229746,0.29670596,-0.00174533,-0.36572018,-0.19889386,0.00122106,-0.01647680,
636,-1.86371481,0.05158216,16.32774162,6.00000000,-0.17885742,0.22236328,-0.16964935,0.10188123,-0.03360010,0.07000000,0.00366300,0.03326504,0.01088761,-0.01031830,-0.01229746,-0.92327923,0.80808741,-0.02819449,0.00997385,0.00122106,-0.06810357,
646,-1.45909476,-0.13037717,11.72129726,6.00000000,0.00644531,-0.01289062,-0.01774128,0.05705510,-0.02921817,0.07000000,0.00366300,-0.07058483,0.02934060,-0.03135225,-0.01229746,-0.75572753,1.00880027,0.03189109,0.02143900,0.00122106,-0.06480140,
656,2.08432364,-1.20297956,5.91296434,6.00000000,0.04189453,-0.06123047,0.02568458,-0.07631017,-0.04176222,0.07000000,0.00366300,-0.01305138,-0.12000000,0.12000000,-0.01229746,-0.63006383,0.66846108,-0.04509418,-0.12880012,0.00122106,-0.05291236,
666,0.26592755,1.12897289,7.07415199,6.00000000,-0.16918945,0.21269532,0.04001551,-0.13818492,-0.03932763,0.07000000,0.00366300,-0.04400423,-0.07502876,0.07509914,-0.01229746,-1.08210409,1.23045707,-0.10902771,-0.05765396,0.00122106,-0.09640579,
676,-3.72400951,0.32811245,10.55412388,6.00000000,-0.10795899,0.14018555,-0.14669599,0.53423679,-0.03955065,0.07000000,0.00366300,0.00947264,0.12000000,-0.12000000,-0.01229746,-1.40499008,1.37008345,0.34500560,0.16180661,0.00122106,-0.07944697,
686,-1.29150069,-0.15551630,7.78163862,6.00000000,0.16918945,-0.20625000,0.12528984,0.48334610,-0.03640838,0.07000000,0.00366300,0.03046749,0.12000000,-0.12000000,-0.01229746,-0.26005405,0.15882497,0.43819290,0.11362439,0.00122106,0.01740823,
696,2.23755264,-1.45437074,7.00352287,6.00000000,0.18208008,-0.21430664,0.10545617,-0.06925315,0.00448591,0.07000000,0.00366300,0.07776570,-0.01274166,0.01451335,-0.01229746,0.90233523,-1.15715337,0.07738185,-0.04466622,0.00122106,0.08435006,
706,5.14770460,-0.15072788,9.31632233,6.00000000,-0.01450195,0.01772461,-0.08337776,-0.47391000,0.04426378,0.07000000,0.00366300,-0.00305299,-0.12000000,0.12000000,-0.01229746,0.91978854,-0.88662726,-0.31046128,-0.29001495,0.00122106,0.04517857,
716,0.42514199,0.06235606,16.67131042,6.00000000,-0.17080078,0.21269532,0.03296341,-0.26791140,0.07611306,0.07000000,0.00366300,-0.02424345,-0.08343987,0.08399297,-0.01229746,-0.13089970,0.21467550,-0.27308041,-0.05602899,0.00122106,-0.03395768,
726,-0.70013285,0.41071242,14.86009598,6.00000000,-0.12246094,0.15468749,-0.19551456,-0.05669089,0.01592515,0.07000000,0.00366300,0.06028202,-0.06883329,0.07114890,-0.01229746,-1.24092913,1.03672564,-0.11474355,-0.05239965,0.00122106,-0.09551162,
736,-0.19375916,0.07193287,10.40568352,6.00000000,-0.11118164,0.13212891,0.09733420,-0.02267086,-0.02240765,0.07000000,0.00366300,-0.00218713,-0.07295769,0.07397176,-0.01229746,-1.61966562,1.64410007,-0.04838992,-0.05862064,0.00122106,-0.12803133,
746,-1.13228619,-0.31353360,7.28603888,6.00000000,-0.10473633,0.13212891,0.03637075,0.19102621,-0.02185431,0.07000000,0.00366300,0.01898891,0.02160040,-0.02140214,-0.01229746,-2.19387889,2.13453770,0.12198192,0.01531828,0.00122106,-0.15561296,
756,-2.66816664,1.01764250,7.11724758,6.00000000,0.02094727,-0.02578125,0.00477807,0.56859368,-0.04276056,0.07000000,0.00366300,0.03945583,0.12000000,-0.12000000,-0.01229746,-1.59872162,1.47131264,0.43453395,0.15387836,0.00122106,-0.08387386,
766,0.06960303,0.12101401,3.79050422,6.00000000,0.17080078,-0.21108398,0.14568962,0.34860224,0.02894125,0.07000000,0.00366300,0.11703263,0.12000000,-0.12000000,-0.01229746,-0.45902157,0.07504916,0.37266210,0.09034722,0.00122106,0.00802873,
776,1.66653562,-1.34663165,5.73100471,6.00000000,0.17241211,-0.21269532,0.00342430,-0.12988099,0.06978267,0.07000000,0.00366300,0.09573694,0.01407963,-0.01230036,-0.01229746,1.04719758,-1.35263014,0.01468155,-0.01372006,0.00122106,0.09253464,
786,3.08390307,-0.21776554,9.23731327,6.00000000,0.02578125,-0.03061523,-0.06074989,-0.54767531,0.12604342,0.07000000,0.00366300,-0.00807044,-0.12000000,0.12000000,-0.01229746,1.45560467,-1.39800870,-0.38203621,-0.14016661,0.00122106,0.07961642,
796,1.33852994,0.46338484,17.26507187,6.00000000,-0.16596679,0.20302734,-0.02092259,-0.51110095,0.11225795,0.07000000,0.00366300,-0.08296625,-0.12000000,0.12000000,-0.01229746,0.47472957,-0.19198622,-0.46469072,-0.08212118,0.00122106,-0.00998717,
806,0.13903487,0.24072409,16.83291817,6.00000000,-0.16757813,0.21108398,-0.14222477,-0.16833770,-0.01413416,0.07000000,0.00366300,0.05861555,-0.12000000,0.12000000,-0.01229746,-1.26536369,1.05941486,-0.24447916,-0.11853674,0.00122106,-0.10718359,
816,-0.63788360,0.22995019,12.94353771,6.00000000,-0.18691406,0.22397462,0.02719054,0.00148548,-0.05645997,0.07000000,0.00366300,-0.06082137,-0.09347729,0.09351728,-0.01229746,-2.22529483,2.43647981,-0.06664602,-0.06810544,0.00122106,-0.18267757,
826,-1.35853827,-0.63076532,8.46278858,6.00000000,-0.13696289,0.17241211,0.05077606,0.36945456,-0.08535429,0.07000000,0.00366300,-0.03945912,0.00847400,-0.00932004,-0.01229746,-3.11541271,3.24456692,0.24357805,-0.00079817,0.00122106,-0.22374777,
836,-2.97582150,0.42028922,6.17273521,6.00000000,0.00805664,-0.01450195,0.04664601,0.70373952,-0.09528428,0.07000000,0.00366300,-0.00598883,0.12000000,-0.12000000,-0.01229746,-2.75412965,2.77158284,0.56707639,0.16062371,0.00122106,-0.16733277,
846,-0.27157071,-0.04179171,2.29053688,6.00000000,0.17080078,-0.20141602,0.09301929,0.67623317,-0.03322072,0.07000000,0.00366300,0.10337392,0.12000000,-0.12000000,-0.01229746,-1.59872162,1.25663710,0.64477831,0.12575796,0.00122106,-0.05968101,
856,0.67294186,-1.30473316,3.47806096,6.00000000,0.17563477,-0.21108398,0.00002315,0.28503802,0.01661860,0.07000000,0.00366300,0.19410293,0.12000000,-0.12000000,-0.01229746,0.22514747,-0.86044729,0.38897967,0.07446478,0.00122106,0.07097456,
866,1.84729779,-0.38057125,7.73614883,6.00000000,0.18046875,-0.22719726,-0.16596504,-0.17213313,0.07385283,0.07000000,0.00366300,0.05661680,0.01462530,-0.01376115,-0.01229746,1.54810703,-1.71391332,-0.00877815,-0.01433177,0.00122106,0.12360470,
876,2.94863057,0.54478770,14.60032463,6.00000000,0.02578125,-0.02416992,0.11784574,-0.71975130,0.09162519,0.07000000,0.00366300,-0.04941561,-0.12000000,0.12000000,-0.01229746,1.75929189,-1.56730568,-0.50912088,-0.11090201,0.00122106,0.08795878,
886,3.60583901,-0.63435662,17.29380226,6.00000000,-0.16918945,0.21108398,0.11089778,-0.86187822,0.03277322,0.07000000,0.00366300,0.20131274,-0.12000000,0.12000000,-0.01229746,0.07504916,-0.75049156,-0.74486190,-0.23750024,0.00122106,-0.02527997,
896,-0.14826933,-0.59006387,18.35682678,6.00000000,-0.17885742,0.21752930,-0.04090001,-0.64922947,-0.08938944,0.07000000,0.00366300,0.10261427,-0.12000000,0.12000000,-0.01229746,-1.05068827,0.71558499,-0.66437370,-0.09769106,0.00122106,-0.11790270,
906,-0.57443726,-0.01066709,11.23647118,6.00000000,-0.17885742,0.21591797,-0.02906203,-0.50247741,-0.05463177,0.07000000,0.00366300,-0.06834154,-0.12000000,0.12000000,-0.01229746,-1.91811693,2.16071773,-0.54625577,-0.06687716,0.00122106,-0.19701415,
916,-2.35452628,0.64175290,7.57813120,6.00000000,-0.18530273,0.22236328,-0.08707979,0.02047805,-0.04069630,0.07000000,0.00366300,-0.08440739,0.03451524,-0.03677775,-0.01229746,-2.74889350,3.03163695,-0.14597386,0.06816477,0.00122106,-0.23135598,
926,-3.26073146,1.39472926,4.89662552,6.00000000,0.04833984,-0.06606445,0.00547709,0.50632042,-0.04307358,0.07000000,0.00366300,-0.00185282,0.12000000,-0.12000000,-0.01229746,-2.47487688,2.47487688,0.31007928,0.20795786,0.00122106,-0.16497514,
936,-0.45472714,0.21079656,0.69958991,6.00000000,0.17402343,-0.20302734,0.15734705,0.42088655,-0.03116941,0.07000000,0.00366300,0.10371610,0.12000000,-0.12000000,-0.01229746,-1.17635190,0.83252209,0.38639981,0.18645322,0.00122106,-0.04711991,
946,0.65019691,-0.96116519,2.78613663,6.00000000,0.17563477,-0.21430664,0.09610574,0.04625276,-0.04068304,0.07000000,0.00366300,0.12984417,0.12000000,-0.12000000,-0.01229746,0.66147983,-1.08734012,0.14304043,0.10870814,0.00122106,0.07750382,
956,2.00052667,-0.18664092,7.40574884,6.00000000,0.17563477,-0.22397462,-0.07603837,-0.40041593,0.03018045,0.07000000,0.00366300,0.00649545,-0.01998587,0.02018345,-0.01229746,1.92335284,-1.93207943,-0.24293995,-0.02132212,0.00122106,0.12837076,
966,3.58309412,0.69681954,15.34133053,6.00000000,-0.02416992,0.03383789,-0.03781218,-0.87391067,0.10896102,0.07000000,0.00366300,-0.08780859,-0.12000000,0.12000000,-0.01229746,1.95302343,-1.63711894,-0.68428016,-0.14701346,0.00122106,0.08465422,
976,2.74632049,-0.63675082,19.96573067,6.00000000,-0.16918945,0.20463867,0.04652705,-0.93771356,0.07606152,0.07000000,0.00366300,-0.01779702,-0.12000000,0.12000000,-0.01229746,0.60911995,-0.54977870,-0.84670687,-0.19513671,0.00122106,-0.02034168,
986,1.12185466,-0.17227571,18.49808502,6.00000000,-0.17885742,0.21269532,-0.19334376,-0.79263759,-0.09508454,0.07000000,0.00366300,-0.01464264,-0.12000000,0.12000000,-0.01229746,-0.79063416,0.83426738,-0.79224187,-0.18231635,0.00122106,-0.12225766,
996,0.20607252,0.00728943,12.47427368,6.00000000,-0.18046875,0.22075196,-0.02766751,-0.71101272,-0.12228571,0.07000000,0.00366300,-0.10291709,-0.12000000,0.12000000,-0.01229746,-1.71391332,2.05076194,-0.72881675,-0.14080131,0.00122106,-0.19895571,
1006,-1.65661645,0.22995019,7.52426195,6.00000000,-0.18530273,0.21591797,0.00159330,-0.27406427,-0.13716197,0.07000000,0.00366300,-0.07281876,-0.08223149,0.08186118,-0.01229746,-2.72794962,2.96182370,-0.40757173,-0.01117399,0.00122106,-0.24782874,
1016,-3.24397206,0.90032667,5.15400219,6.00000000,-0.12084961,0.14501953,-0.01227674,0.24180481,-0.12910895,0.07000000,0.00366300,-0.05217424,0.12000000,-0.12000000,-0.01229746,-3.14159274,3.31088948,0.04831192,0.16261461,0.00122106,-0.24216202,
1026,-3.46663284,0.20720527,3.86592174,6.00000000,0.16757813,-0.19980469,0.05836739,0.60568339,-0.10257114,0.07000000,0.00366300,-0.00778161,0.12000000,-0.12000000,-0.01229746,-1.69646001,1.71740401,0.43479386,0.29651549,0.00122106,-0.09697039,
1036,-0.56246620,-0.35782632,1.12216651,6.00000000,0.17563477,-0.20786133,0.12931406,0.25861832,-0.11236425,0.07000000,0.00366300,0.07639420,0.12000000,-0.12000000,-0.01229746,0.18675023,-0.44331363,0.30837798,0.27649525,0.00122106,0.04747398,
1046,2.70083070,-0.64513052,5.15639639,6.00000000,0.17724609,-0.21430664,-0.07871830,-0.08304234,-0.08246125,0.07000000,0.00366300,0.19781002,0.05188759,-0.04837792,-0.01229746,1.16937065,-1.81863308,0.03002349,0.01606908,0.00122106,0.11611694,
1056,3.74111128,0.66090649,11.15626621,6.00000000,0.07734375,-0.09667969,-0.16842107,-0.69899404,-0.00670838,0.07000000,0.00366300,-0.04551263,-0.12000000,0.12000000,-0.01229746,1.89542758,-1.70169604,-0.48293734,-0.15044613,0.00122106,0.10025769,
1066,4.43662691,0.22875308,17.86841011,6.00000000,-0.16274413,0.21269532,0.21789883,-1.09157407,0.07978362,0.07000000,0.00366300,-0.13292448,-0.12000000,0.12000000,-0.01229746,0.83077669,-0.38397244,-0.90138489,-0.25549716,0.00122106,-0.02237555,
1076,1.34810674,-1.11319697,19.69638252,6.00000000,-0.17241211,0.21430664,-0.20984265,-0.80630922,-0.07364993,0.07000000,0.00366300,0.04742810,-0.12000000,0.12000000,-0.01229746,-0.71558499,0.55152404,-0.81453413,-0.19889644,0.00122106,-0.11032604,
1086,0.73997951,-0.23691915,14.55722904,6.00000000,-0.18046875,0.21591797,-0.10773372,-0.87462521,-0.07282754,0.07000000,0.00366300,-0.15531422,-0.12000000,0.12000000,-0.01229746,-1.76103723,2.27241874,-0.84756309,-0.17090356,0.00122106,-0.21823835,
1096,-0.48345757,0.23952699,9.37857151,6.00000000,-0.17885742,0.22075196,-0.12641169,-0.39290807,-0.07332191,0.07000000,0.00366300,-0.15503311,-0.12000000,0.12000000,-0.01229746,-2.57959676,3.08399677,-0.52534842,-0.10402808,0.00122106,-0.25580859,
1106,-1.95948291,1.35642207,6.90895224,6.00000000,-0.18691406,0.22880860,0.05724772,-0.07712522,-0.10958221,0.07000000,0.00366300,-0.13777286,-0.02299524,0.02040049,-0.01229746,-3.41386414,3.86241364,-0.20966545,0.02966326,0.00122106,-0.29319730,
1116,-2.59873486,0.39395300,4.43095350,6.00000000,-0.04028320,0.04672851,0.04284505,0.49358582,-0.11825756,0.07000000,0.00366300,-0.06478590,0.12000000,-0.12000000,-0.01229746,-3.41909981,3.62155819,0.28300160,0.14475703,0.00122106,-0.24669710,
1126,-1.12989199,-0.08009893,1.99126172,6.00000000,0.17080078,-0.21591797,0.14203677,0.49728179,-0.14966150,0.07000000,0.00366300,-0.06609125,0.12000000,-0.12000000,-0.01229746,-1.86226630,2.07345128,0.43084618,0.16621210,0.00122106,-0.11714914,
1136,1.23557925,-0.26205826,2.14089942,6.00000000,0.17885742,-0.21269532,0.08539534,0.12355039,-0.07534944,0.07000000,0.00366300,0.06840375,0.10698295,-0.10702126,-0.01229746,-0.28623399,0.05585054,0.21217218,0.06439408,0.00122106,0.00310977,
1146,4.03918934,-1.16347516,7.62840986,6.00000000,0.16113281,-0.20302734,-0.10941537,-0.42312753,-0.00446342,0.07000000,0.00366300,0.09468857,-0.12000000,0.12000000,-0.01229746,0.74351025,-1.05068827,-0.23926380,-0.18179217,0.00122106,0.05011898,
1156,5.39430761,1.11221349,14.42195702,6.00000000,-0.17402343,0.20625000,-0.02082841,-0.97253031,0.07963508,0.07000000,0.00366300,-0.20182760,-0.12000000,0.12000000,-0.01229746,0.22340214,0.45378560,-0.75130033,-0.30309439,0.00122106,-0.06599836,
1166,0.90517944,-1.48908663,20.53136063,6.00000000,-0.16918945,0.21269532,-0.02871944,-0.57915646,0.05977110,0.07000000,0.00366300,0.08745210,-0.12000000,0.12000000,-0.01229746,-1.03323495,0.74351025,-0.61221558,-0.15684338,0.00122106,-0.11433404,
1176,2.79540157,-0.35184082,16.40555382,6.00000000,-0.18369141,0.22397462,-0.05768365,-0.88109028,-0.03931686,0.07000000,0.00366300,-0.02222887,-0.12000000,0.12000000,-0.01229746,-2.13628292,2.21482277,-0.79198843,-0.30075169,0.00122106,-0.22610489,
1186,0.95186633,-0.53499728,12.36174679,6.00000000,-0.18046875,0.21430664,-0.10423742,-0.58583122,0.00192438,0.07000000,0.00366300,-0.15976813,-0.12000000,0.12000000,-0.01229746,-2.77856421,3.30216289,-0.64159089,-0.21930924,0.00122106,-0.28055537,
1196,-1.48423386,0.64055580,9.20259762,6.00000000,-0.18691406,0.21752930,-0.09318291,-0.36776903,-0.01040569,0.07000000,0.00366300,-0.07115979,-0.12000000,0.12000000,-0.01229746,-3.67391801,3.90255642,-0.44656661,-0.05192658,0.00122106,-0.32268476,
1206,-1.21728039,2.06749988,5.67833233,6.00000000,-0.19013672,0.21752930,-0.02382047,0.10354763,-0.02856050,0.07000000,0.00366300,-0.09694932,-0.04063676,0.03927714,-0.01229746,-4.37554026,4.70191669,-0.05948654,0.00363176,0.00122106,-0.35038003,
1216,-2.99377799,0.47775006,5.02950382,6.00000000,-0.06928711,0.07089844,0.07701427,0.60959429,-0.07703473,0.07000000,0.00366300,-0.03365356,0.12000000,-0.12000000,-0.01229746,-4.53087473,4.63384914,0.41117707,0.15628554,0.00122106,-0.31785390,
1226,-0.47507787,-0.05974822,3.41102338,6.00000000,0.16596679,-0.21108398,0.15165570,0.70276147,-0.11563620,0.07000000,0.00366300,0.00105239,0.12000000,-0.12000000,-0.01229746,-3.08225155,3.07352495,0.61416662,0.11150395,0.00122106,-0.18776613,
1236,2.04122806,-0.58766967,4.68114758,6.00000000,0.17724609,-0.20625000,0.12339772,0.15613802,-0.07013276,0.07000000,0.00366300,0.05812291,0.00809704,-0.00689626,-0.01229746,-1.21649444,1.02276289,0.28835213,-0.02840766,0.00122106,-0.06336913,
1246,5.85638857,-1.15868676,8.05936623,6.00000000,0.01611328,-0.01127930,-0.10550965,-0.55235320,-0.00289333,0.07000000,0.00366300,0.17573413,-0.12000000,0.12000000,-0.01229746,-0.64577180,0.05759586,-0.30669275,-0.34121969,0.00122106,-0.05016895,
1256,5.35480309,0.91828316,14.45547581,6.00000000,-0.18046875,0.22558594,-0.02776302,-1.00636518,0.06436484,0.07000000,0.00366300,-0.17702770,-0.12000000,0.12000000,-0.01229746,-0.71907568,1.30550635,-0.79638457,-0.39827007,0.00122106,-0.13780110,
1266,3.04798985,-2.20734715,19.02959824,6.00000000,-0.17724609,0.21591797,-0.00857482,-0.95633620,0.12660339,0.07000000,0.00366300,0.12761797,-0.12000000,0.12000000,-0.01229746,-1.89368224,1.47654855,-0.89249408,-0.30891940,0.00122106,-0.19640070,
1276,3.37599564,-0.96715069,14.26992512,6.00000000,-0.17724609,0.22397462,-0.14058696,-1.13750124,0.04020554,0.07000000,0.00366300,-0.12778682,-0.12000000,0.12000000,-0.01229746,-2.56388855,2.98451304,-1.05719912,-0.36351657,0.00122106,-0.29193589,
1286,1.37324584,0.45979354,11.08803082,6.00000000,-0.18046875,0.20947266,-0.22207576,-0.75356978,0.02231758,0.07000000,0.00366300,-0.14001361,-0.12000000,0.12000000,-0.01229746,-3.33183336,3.78561902,-0.83856153,-0.28188759,0.00122106,-0.33506572,
1296,-0.73006034,1.25825977,8.80515957,6.00000000,-0.19013672,0.21430664,-0.01070129,-0.59278905,-0.03558589,0.07000000,0.00366300,-0.13028124,-0.12000000,0.12000000,-0.01229746,-4.00553083,4.42964554,-0.66507965,-0.12461773,0.00122106,-0.37205327,
1306,-0.25959972,1.06672370,5.44130659,6.00000000,-0.19013672,0.21108398,0.03883962,-0.03582280,-0.13461117,0.07000000,0.00366300,-0.08908762,-0.12000000,0.12000000,-0.01229746,-4.93055534,5.21678925,-0.22338745,-0.09895021,0.00122106,-0.40363184,
1316,-1.72245693,0.09707199,5.76811504,6.00000000,-0.18691406,0.23041992,0.18297642,0.30357280,-0.17055473,0.07000000,0.00366300,-0.18796960,-0.01370890,0.01002192,-0.01229746,-5.34943438,5.97426176,0.14762737,0.01647603,0.00122106,-0.42018232,
1326,-1.02095580,-1.16227806,5.99795818,6.00000000,-0.01611328,0.02739258,0.03776697,0.83659518,-0.17517698,0.07000000,0.00366300,-0.10799133,0.05868078,-0.06159712,-0.01229746,-5.16268349,5.50302315,0.63250840,0.02234247,0.00122106,-0.35818183,
1336,2.66252351,-0.03101780,5.30483675,6.00000000,0.08701172,-0.10795899,0.05573425,0.58015174,-0.15124029,0.07000000,0.00366300,-0.10619813,-0.12000000,0.12000000,-0.01229746,-4.41393757,4.76125813,0.59698546,-0.17215098,0.00122106,-0.30409712,
1346,5.72351027,-0.94799703,8.03542423,6.00000000,-0.17241211,0.20947266,0.02807283,0.15506880,-0.04290762,0.07000000,0.00366300,-0.17681339,-0.12000000,0.12000000,-0.01229746,-4.71587992,5.29707432,0.28783667,-0.42230445,0.00122106,-0.35954651,
1356,0.71603751,-0.72294211,16.47618294,6.00000000,-0.17563477,0.20625000,-0.18385117,0.64029932,-0.03527122,0.07000000,0.00366300,-0.23260751,-0.12000000,0.12000000,-0.01229746,-5.01084042,5.76656771,0.53401875,-0.18395203,0.00122106,-0.36992729,
1366,3.85842729,0.66689199,16.63779068,6.00000000,-0.18208008,0.22397462,0.05077275,0.50893247,-0.10033354,0.07000000,0.00366300,-0.14206383,-0.12000000,0.12000000,-0.01229746,-6.45248222,6.91150379,0.51537013,-0.36789572,0.00122106,-0.46987733,
1376,3.19523335,0.42507762,13.50617504,6.00000000,-0.18046875,0.21108398,-0.04791196,0.72852606,-0.18227345,0.07000000,0.00366300,-0.19196683,-0.12000000,0.12000000,-0.01229746,-7.13839674,7.75973415,0.66433144,-0.36851051,0.00122106,-0.51698899,
1386,0.98059678,-0.30275971,11.82783985,6.00000000,-0.18852539,0.21914062,0.09382945,0.86056858,-0.19571000,0.07000000,0.00366300,-0.17702729,-0.12000000,0.12000000,-0.01229746,-7.92030382,8.49451733,0.80292451,-0.23094413,0.00122106,-0.56421441,
1396,0.39042604,0.57232100,8.21259499,6.00000000,-0.19013672,0.21108398,-0.06184036,1.12060428,-0.18729460,0.07000000,0.00366300,-0.27654830,-0.12000000,0.12000000,-0.01229746,-8.56607533,9.46492004,1.03017259,-0.17947483,0.00122106,-0.60847515,
1406,-1.14186299,0.60105145,7.60446787,6.00000000,-0.18691406,0.21914062,-0.02998857,1.39790833,-0.17086844,0.07000000,0.00366300,-0.34846196,0.01116672,-0.01845099,-0.01229746,-9.10712814,10.24159145,1.29322791,-0.05548573,0.00122106,-0.63863957,
1416,-1.43275857,1.01285410,5.86747408,6.00000000,0.00000000,-0.02416992,-0.06795628,1.86052573,-0.16669737,0.07000000,0.00366300,-0.19261193,0.12000000,-0.12000000,-0.01229746,-8.94830322,9.56091309,1.69833648,0.01659208,0.00122106,-0.57580453,
1426,1.79941380,0.81413537,3.33321190,6.00000000,0.16435547,-0.20302734,0.10010111,1.55545580,-0.14741087,0.07000000,0.00366300,-0.10236885,0.03595240,-0.03818667,-0.01229746,-7.72831774,8.05469418,1.60799968,-0.09057017,0.00122106,-0.47882569,
1436,4.46296310,-0.76124930,5.26413536,6.00000000,0.04995117,-0.07573242,0.06204621,0.99991107,-0.14899203,0.07000000,0.00366300,0.03877041,-0.12000000,0.12000000,-0.01229746,-6.61305237,6.47691679,1.18515718,-0.28899008,0.00122106,-0.40843010,
1446,4.84244394,-0.01186419,9.68981743,6.00000000,-0.18208008,0.20947266,0.06881094,0.56953478,-0.10376435,0.07000000,0.00366300,-0.22909418,-0.12000000,0.12000000,-0.01229746,-6.89055967,7.64105129,0.75104564,-0.39958769,0.00122106,-0.49640527,
1456,0.05164651,-1.37057364,18.06593132,6.00000000,-0.17563477,0.22236328,-0.03003566,0.92601436,-0.04092578,0.07000000,0.00366300,-0.20246504,-0.08598477,0.08319041,-0.01229746,-7.53109550,8.19083023,0.86730468,-0.11587834,0.00122106,-0.53291166,
1466,2.74512339,0.76266009,14.82178879,6.00000000,-0.13051757,0.16274413,-0.10533296,0.97608781,-0.03541651,0.07000000,0.00366300,-0.23797482,-0.12000000,0.12000000,-0.01229746,-8.58876514,9.36892700,0.94015819,-0.29819766,0.00122106,-0.61253387,
1476,2.64456701,0.22157048,12.08521652,6.00000000,-0.17724609,0.22719726,-0.08481543,1.12319517,-0.05151780,0.07000000,0.00366300,-0.22957055,-0.12000000,0.12000000,-0.01229746,-9.44572258,10.19272327,1.06799650,-0.30870014,0.00122106,-0.66683340,
1486,-0.16024034,0.02524594,10.71573257,6.00000000,-0.17241211,0.20947266,0.03066531,1.33002079,-0.09477171,0.07000000,0.00366300,-0.19213474,-0.10238171,0.10026338,-0.01229746,-10.26253605,10.88736343,1.25338304,-0.15043065,0.00122106,-0.71029729,
1496,-0.72287774,0.57351810,7.63200092,6.00000000,-0.15791015,0.18369141,0.02353096,1.63453126,-0.11771967,0.07000000,0.00366300,-0.18995969,0.01137410,-0.01498528,-0.01229746,-10.99557400,11.61342144,1.52764380,-0.06866311,0.00122106,-0.74499208,
1506,-2.09475541,-0.21537134,5.84113789,6.00000000,0.01127930,-0.02416992,-0.00534551,1.94668841,-0.12240116,0.07000000,0.00366300,-0.13907149,0.12000000,-0.12000000,-0.01229746,-10.67443371,11.12647438,1.82937217,0.06837223,0.00122106,-0.69123083,
1516,0.71244615,0.80934697,2.64009047,6.00000000,0.17402343,-0.19658203,0.01264319,1.80536926,-0.06971630,0.07000000,0.00366300,-0.02810182,0.12000000,-0.12000000,-0.01229746,-9.40557957,9.49284649,1.82562912,0.01296457,0.00122106,-0.58094192,
1526,1.40197623,-0.49788713,4.00358820,6.00000000,0.18369141,-0.21430664,-0.05349104,1.32333314,-0.01101497,0.07000000,0.00366300,0.15325132,0.09329797,-0.09066772,-0.01229746,-7.59043694,7.07731009,1.47800851,-0.02915591,0.00122106,-0.44624647,
1536,3.28142452,0.02764014,7.72178364,6.00000000,0.12890625,-0.15146485,-0.06038719,0.69309193,0.00830898,0.07000000,0.00366300,0.29433760,-0.09511664,0.10342073,-0.01229746,-6.16101217,5.18537331,0.92249078,-0.15852377,0.00122106,-0.36202022,
1546,5.66485262,1.11939609,13.65581226,6.00000000,-0.14179687,0.17724609,-0.00468264,0.11253206,0.03699070,0.07000000,0.00366300,0.09897195,-0.12000000,0.12000000,-0.01229746,-6.19766426,5.89048624,0.34572566,-0.33055046,0.00122106,-0.43419540,
1556,2.73913789,-1.65668070,20.53136063,6.00000000,-0.17241211,0.20463867,0.26569024,0.04800556,0.06092359,0.07000000,0.00366300,0.04625159,-0.12000000,0.12000000,-0.01229746,-7.26231527,7.12094355,0.13312435,-0.26427639,0.00122106,-0.53783810,
1566,2.24952364,-1.32508385,16.36125946,6.00000000,-0.18046875,0.20302734,-0.16919051,0.10118359,0.03736683,0.07000000,0.00366300,-0.09172611,-0.12000000,0.12000000,-0.01229746,-8.34790993,8.65159702,0.11271038,-0.26874948,0.00122106,-0.63907295,
1576,0.51971292,0.89553827,11.91522789,6.00000000,-0.17080078,0.20625000,-0.05643588,0.34882677,0.15170947,0.07000000,0.00366300,-0.29881424,-0.12000000,0.12000000,-0.01229746,-9.13330746,10.11941910,0.28123659,-0.18188544,0.00122106,-0.71208477,
1586,-1.26157308,-0.34824952,6.94725943,6.00000000,-0.17241211,0.21752930,-0.15198427,0.68981117,0.08586047,0.07000000,0.00366300,-0.28726029,-0.10385437,0.09959404,-0.01229746,-10.16654301,11.10727596,0.57409948,-0.06851878,0.00122106,-0.76677591,
1596,-3.70964432,0.42627472,5.02710962,6.00000000,-0.15629883,0.17885742,0.09058195,1.27178061,-0.06065365,0.07000000,0.00366300,-0.13934675,0.12000000,-0.12000000,-0.01229746,-10.79137039,11.23119354,1.07145369,0.17354533,0.00122106,-0.75741959,
1606,-4.00652552,1.40670037,3.48045516,6.00000000,0.16757813,-0.19658203,0.15240949,1.64097226,-0.11590073,0.07000000,0.00366300,-0.03866769,0.12000000,-0.12000000,-0.01229746,-9.84016609,9.95884800,1.47643769,0.34672874,0.00122106,-0.64186537,
1616,-0.64027780,0.53521091,1.03118682,6.00000000,0.17724609,-0.20786133,0.30355006,1.35460281,-0.14298455,0.07000000,0.00366300,0.04343890,0.12000000,-0.12000000,-0.01229746,-7.63581562,7.48222685,1.40060437,0.32699382,0.00122106,-0.46930727,
1626,1.66653562,-0.94201154,4.99598503,6.00000000,0.17402343,-0.20947266,0.18231112,0.94119507,-0.06125468,0.07000000,0.00366300,0.26297480,0.12000000,-0.12000000,-0.01229746,-5.87128735,5.00560427,1.07839239,0.11317623,0.00122106,-0.33226764,
1636,2.96538997,-1.79913580,10.70376205,6.00000000,0.17080078,-0.20786133,0.00805795,0.29908404,0.01501482,0.07000000,-0.00183159,0.29626283,-0.04993964,0.05761096,-0.01229746,-4.20449829,3.23933125,0.51908702,-0.08719309,0.00122106,-0.24407592,
1646,5.87434483,-0.44641179,16.31098175,6.00000000,-0.06928711,0.09345703,0.17754605,-0.51684135,0.07384796,0.07000000,-0.00183159,0.17221110,-0.12000000,0.12000000,-0.01229746,-4.06661701,3.53080106,-0.21781439,-0.31328836,0.00122106,-0.30604318,
1656,4.97532225,-0.25607276,20.53136063,6.00000000,-0.17080078,0.21269532,0.17924269,-1.19333780,0.09136212,0.07000000,-0.00183159,0.20230913,-0.12000000,0.12000000,-0.01229746,-5.76133204,5.10683346,-0.89524066,-0.36555582,0.00122106,-0.48225659,
1666,1.04164886,-1.65548360,17.90911102,6.00000000,-0.18046875,0.22075196,-0.22742867,-1.07367337,0.08832098,0.07000000,-0.00183159,0.02297951,-0.12000000,0.12000000,-0.01229746,-6.76838684,6.69508314,-1.00759542,-0.16787556,0.00122106,-0.58971649,
1676,-1.86850321,0.62020504,11.04972363,6.00000000,-0.17724609,0.21914062,-0.06652705,-0.85509020,0.11689071,0.07000000,0.00366300,-0.12919912,-0.12000000,0.12000000,-0.01229746,-7.62010765,8.05294895,-0.89562166,0.00210918,0.00122106,-0.66537589,
1686,-2.47184205,2.32367969,4.70748377,6.00000000,-0.17080078,0.21591797,-0.23423421,-0.34154552,0.11410538,0.07000000,-0.00183159,-0.17084217,-0.02970738,0.02693411,-0.01229746,-8.46135616,9.03557014,-0.50888306,0.11128550,0.00122106,-0.70540386,
1696,-4.22559500,2.35241008,2.98006701,6.00000000,-0.04028320,0.05156250,-0.00660110,0.24781166,0.02175871,0.07000000,-0.00183159,-0.03620704,0.12000000,-0.12000000,-0.01229746,-8.67952251,8.79122353,0.01749629,0.31066644,0.00122106,-0.66431540,
1706,-3.15778089,2.37515497,0.22673510,6.00000000,0.17241211,-0.21591797,0.19562678,0.64147538,-0.03819450,0.07000000,-0.00183159,0.10999905,0.12000000,-0.12000000,-0.01229746,-7.40368700,7.03542233,0.45102590,0.43261686,0.00122106,-0.51579535,
1716,-2.54965353,0.45261094,1.09702742,6.00000000,0.17080078,-0.20625000,0.30979922,0.43088976,-0.06687014,0.07000000,-0.00183159,0.30409834,0.12000000,-0.12000000,-0.01229746,-5.44368172,4.43662691,0.43373874,0.49003401,0.00122106,-0.34342417,
1726,0.99735618,-1.03538537,3.84317684,6.00000000,0.17563477,-0.21108398,0.06836808,0.12596312,-0.02220620,0.07000000,-0.00183159,0.50783074,0.12000000,-0.12000000,-0.01229746,-3.63901138,1.97396731,0.21111801,0.25669807,0.00122106,-0.19779967,
1736,3.05636954,-2.33663392,10.31949234,6.00000000,0.17402343,-0.22075196,-0.24760509,-0.36679399,0.09834287,0.07000000,-0.00183159,0.37785003,-0.01573453,0.02453143,-0.01229746,-1.82735968,0.60737455,-0.20595519,0.00606745,0.00122106,-0.10848033,
1746,6.01320887,-1.13235056,17.30337906,6.00000000,-0.00805664,0.03544922,0.11412949,-1.00626695,0.17259300,0.07000000,-0.00183159,0.25904912,-0.12000000,0.12000000,-0.01229746,-1.56556034,0.75572753,-0.76815784,-0.29998180,0.00122106,-0.14696527,
1756,6.43099689,-0.82708985,20.53136063,6.00000000,-0.17563477,0.22075196,0.09024387,-2.08870196,0.09913258,0.07000000,-0.00183159,0.28466865,-0.12000000,0.12000000,-0.01229746,-3.42433596,2.49931145,-1.67872763,-0.42225403,0.00122106,-0.35356629,
1766,1.51330662,-3.16622496,18.38675499,6.00000000,-0.18530273,0.21108398,-0.28038999,-1.92678154,0.14584477,0.07000000,-0.00183159,0.23933080,-0.12000000,0.12000000,-0.01229746,-4.75776768,3.97586012,-1.82932448,-0.18614304,0.00122106,-0.47212315,
1776,-1.19812679,0.32092986,12.60356045,6.00000000,-0.17885742,0.22397462,-0.18155761,-1.64914525,0.21167268,0.07000000,-0.00183159,0.01293296,-0.12000000,0.12000000,-0.01229746,-5.55363798,5.52047634,-1.69244981,-0.03178084,0.00122106,-0.55087531,
1786,-2.51613474,1.20319319,5.14322805,6.00000000,-0.18046875,0.21752930,-0.26438195,-1.06310356,0.17939070,0.07000000,-0.00183159,0.03367662,-0.10359575,0.10623630,-0.01229746,-6.42804766,6.33205414,-1.25748074,0.10541351,0.00122106,-0.58197528,
1796,-4.12384129,2.60380125,2.02956891,6.00000000,-0.16274413,0.19335937,-0.01580877,-0.35721368,0.10210636,0.07000000,-0.00183159,0.01900046,0.12000000,-0.12000000,-0.01229746,-7.11919785,7.06160212,-0.63362229,0.30706161,0.00122106,-0.58857042,
1806,-4.99173927,2.26023316,0.55952913,6.00000000,0.17563477,-0.19980469,0.08542783,0.46022388,0.02717603,0.07000000,-0.00183159,0.24358836,0.12000000,-0.12000000,-0.01229746,-6.08072710,5.27962112,0.12352931,0.51794779,0.00122106,-0.42345583,
1816,-2.33776689,0.17608064,-0.27125886,6.00000000,0.17080078,-0.19980469,0.33910534,0.21886119,0.00878073,0.07000000,-0.00183159,0.38954312,0.12000000,-0.12000000,-0.01229746,-4.05265427,2.76634693,0.18366179,0.53393108,0.00122106,-0.24584551,
1826,-0.74562263,-0.56851608,1.66684747,6.00000000,0.17563477,-0.21752930,0.16898933,-0.11797169,0.00257131,0.07000000,-0.00183159,0.43142933,0.12000000,-0.12000000,-0.01229746,-2.09788561,0.68242371,-0.03559451,0.41723615,0.00122106,-0.10867129,
1836,3.17248845,-1.44239974,7.12203598,6.00000000,0.17885742,-0.22558594,-0.11388019,-0.55666733,0.15788831,0.07000000,-0.00183159,0.35468817,0.02420474,-0.01656819,-0.01229746,-0.85695666,-0.28972465,-0.40920711,0.05900487,0.00122106,-0.05280607,
1846,5.61936235,-1.15270126,18.90150833,6.00000000,0.04189453,-0.04350586,-0.02580310,-1.06802988,0.20862365,0.07000000,-0.00183159,-0.12571019,-0.12000000,0.12000000,-0.01229746,0.00349066,0.47123891,-0.86467832,-0.24547452,0.00122106,-0.08370173,
1856,6.99004316,-1.91046619,20.53136063,6.00000000,-0.17080078,0.20786133,-0.23660280,-2.02276945,0.25445509,0.07000000,-0.00183159,0.08187266,-0.12000000,0.12000000,-0.01229746,-1.89717281,1.63013756,-1.65743089,-0.43593851,0.00122106,-0.26064703,
1866,1.61266601,0.11622560,18.37598038,6.00000000,-0.16757813,0.21752930,-0.20433652,-2.14406705,0.13044882,0.07000000,-0.00183159,0.10377194,-0.12000000,0.12000000,-0.01229746,-3.21489644,2.87455726,-1.97298050,-0.20676954,0.00122106,-0.38232100,
1876,0.38683474,0.96497011,10.49546623,6.00000000,-0.17563477,0.21752930,-0.09580752,-1.74510670,0.07441869,0.07000000,-0.00183159,-0.10359614,-0.12000000,0.12000000,-0.01229746,-4.05614519,4.39822960,-1.80732536,-0.16455750,0.00122106,-0.45981753,
1886,-2.35572338,0.55197030,7.11245918,6.00000000,-0.17402343,0.23203126,-0.01835642,-1.15071714,0.01428240,0.07000000,-0.00183159,-0.00934047,-0.12000000,0.12000000,-0.01229746,-5.06145477,5.09112549,-1.34866154,0.02013965,0.00122106,-0.48957545,
1896,-2.23960447,1.04038751,2.00442982,6.00000000,-0.17080078,0.20947266,-0.05164065,-0.56216043,-0.03498007,0.07000000,-0.00183159,-0.05744408,-0.02641604,0.02592945,-0.01229746,-5.97600746,6.17497492,-0.80561244,0.12182790,0.00122106,-0.52433282,
1906,-4.41593409,0.83089483,1.45855188,6.00000000,-0.04672851,0.05156250,0.19716969,0.30660102,-0.06594956,0.07000000,-0.00183159,-0.15381904,0.12000000,-0.12000000,-0.01229746,-5.87826872,6.38266945,-0.03126121,0.34119102,0.00122106,-0.46953830,
1916,-4.17771101,-0.82110435,1.20237231,6.00000000,0.16757813,-0.20141602,0.09867612,0.63595420,-0.03733114,0.07000000,-0.00183159,0.06900699,0.12000000,-0.12000000,-0.01229746,-4.40695620,4.17482758,0.43106651,0.50754905,0.00122106,-0.29415715,
1926,-0.39846340,-0.48591614,1.67283297,6.00000000,0.16596679,-0.21430664,0.03909270,0.13476782,-0.04820717,0.07000000,-0.00183159,0.21109138,0.12000000,-0.12000000,-0.01229746,-2.45567822,1.76103723,0.21860480,0.40385142,0.00122106,-0.14403056,
1936,4.04158354,-0.82110435,4.98640823,6.00000000,0.17241211,-0.21269532,-0.14655727,-0.32648087,-0.02155007,0.07000000,-0.00183159,0.23311576,-0.00050503,0.00579751,-0.01229746,-0.86917394,0.11170107,-0.17083938,0.01040190,0.00122106,-0.05040948,
1946,7.68795300,0.31255013,17.12979889,6.00000000,0.00000000,0.00000000,0.09287268,-0.78582275,-0.03329429,0.07000000,-0.00183159,-0.09097174,-0.12000000,0.12000000,-0.01229746,-0.06108652,0.41887903,-0.60097480,-0.41147706,0.00122106,-0.06407501,
1956,8.40860748,-1.91166329,20.53136063,6.00000000,-0.16918945,0.22397462,0.23536366,-1.48306119,-0.05695225,0.07000000,-0.00183159,0.22363110,-0.12000000,0.12000000,-0.01229746,-1.85179436,1.12050128,-1.20461416,-0.51380152,0.00366306,-0.20500466,
1966,5.47690773,-1.33585775,20.53136063,6.00000000,-0.18369141,0.20302734,-0.01607171,-1.75888419,-0.11825404,0.07000000,-0.00183159,-0.04522604,-0.12000000,0.12000000,-0.01229746,-2.76460147,2.91120934,-1.57195175,-0.43750763,0.00366306,-0.33600608,
1976,1.43788934,-1.54175913,13.38766193,6.00000000,-0.17724609,0.21914062,-0.02707858,-1.39193606,-0.04089426,0.07000000,-0.00183159,-0.11169759,-0.12000000,0.12000000,-0.01229746,-3.75594854,4.12072229,-1.43230700,-0.27629489,0.00488400,-0.40922713,
1986,-0.35417068,-0.07411344,6.57735491,6.00000000,-0.17885742,0.21591797,-0.11021636,-0.91009218,-0.03822776,0.07000000,-0.00183159,-0.16878833,-0.12000000,0.12000000,-0.01229746,-4.71238899,5.26216793,-1.06824267,-0.17139962,0.00488400,-0.46142143,
1996,-1.99779010,0.78061658,4.43095350,6.00000000,-0.18530273,0.21108398,-0.17609610,-0.27267429,-0.08330737,0.07000000,-0.00183159,-0.11186170,-0.12000000,0.12000000,-0.01229746,-5.69151878,6.05105686,-0.51352137,-0.01830228,0.04273510,-0.48651892,
2006,-2.59753776,3.72668171,1.86317194,6.00000000,-0.18369141,0.22558594,0.02018553,0.39493093,-0.16034058,0.07000000,-0.00183159,-0.25078970,0.08556345,-0.09182732,-0.01229746,-6.27096796,7.11570740,0.12288773,0.12971450,0.04273510,-0.50066799,
2016,-4.08673096,1.73590302,2.84240055,6.00000000,0.12568359,-0.15629883,0.17612857,1.03729296,-0.15326083,0.07000000,-0.00183159,-0.09038389,0.12000000,-0.12000000,-0.01229746,-5.46986198,5.75085974,0.76175547,0.32656980,0.10134315,-0.36949712,
2026,1.21163726,0.79019338,1.64649665,6.00000000,0.17724609,-0.21591797,0.13692050,0.88698792,-0.17055210,0.07000000,-0.00183159,0.04127036,0.12000000,-0.12000000,-0.01229746,-3.70358872,3.55872631,0.85143620,0.17077321,0.10134315,-0.21184900,
2036,1.86405718,-0.73371601,4.33638239,6.00000000,0.17241211,-0.20625000,-0.01450737,0.26009104,-0.09741216,0.07000000,-0.00183159,0.08938190,0.05109015,-0.04948340,-0.01229746,-1.89019167,1.59523094,0.43423918,0.02048707,0.15140414,-0.09972885,
2046,8.64204216,-1.17065775,10.24766636,6.00000000,0.07734375,-0.09506836,-0.15744768,-0.34706536,-0.00983667,0.07000000,-0.00183159,0.09585850,-0.12000000,0.12000000,-0.01229746,-1.05592418,0.74874628,-0.12040436,-0.49945605,0.25030529,-0.07793617,
2056,8.09975529,0.70160794,17.35006523,6.00000000,-0.16918945,0.20463867,0.29648310,-0.73395991,0.04290725,0.07000000,-0.00183159,-0.27915597,-0.12000000,0.12000000,-0.01229746,-1.44164193,2.37015724,-0.54873693,-0.50185156,0.25030529,-0.18701804,
2066,4.65689325,-0.85342610,20.53136063,6.00000000,-0.18046875,0.20947266,-0.27212560,-0.96646285,0.02919972,0.07000000,-0.00183159,-0.08845872,-0.12000000,0.12000000,-0.01229746,-2.78030944,3.05956221,-0.82830417,-0.40066704,0.36752141,-0.28559464,
2076,3.05517244,0.21797918,16.21641159,6.00000000,-0.18530273,0.22397462,-0.02176646,-0.96247262,0.00596336,0.07000000,-0.00183159,-0.23914161,-0.12000000,0.12000000,-0.01229746,-3.78910995,4.57276249,-0.91076529,-0.33604640,0.36752141,-0.38796726,
2086,1.14220536,1.53479016,7.55658340,6.00000000,-0.18530273,0.21430664,-0.23966447,-0.42641041,0.02050747,0.07000000,0.00366300,-0.27411574,-0.12000000,0.12000000,-0.01229746,-4.86946869,5.76133204,-0.56970912,-0.29822567,0.44444442,-0.44843557,
2096,-2.55683613,0.56633550,5.04746008,6.00000000,-0.18208008,0.21591797,-0.03447122,0.13155919,-0.07273433,0.07000000,0.00366300,-0.30149147,-0.12000000,0.12000000,-0.01229746,-5.48731518,6.46993589,-0.07844052,-0.03972775,0.44444442,-0.46154740,
2106,-1.41121078,0.77822238,2.10857773,6.00000000,-0.17563477,0.22236328,0.05067046,0.74344963,-0.18522467,0.07000000,0.00366300,-0.23201677,-0.03428492,0.03048865,-0.01229746,-6.32681847,7.07207441,0.50175017,0.03610852,0.53357756,-0.47226569,
2116,-3.70126462,0.48732686,5.32399035,6.00000000,-0.06445312,0.06123047,0.04964378,1.40258074,-0.19250022,0.07000000,0.00366300,-0.20306210,0.12000000,-0.12000000,-0.01229746,-6.27445889,6.93244791,1.13875616,0.22065316,0.53357756,-0.41642469,
2126,-0.21291278,-1.40289533,3.59298277,6.00000000,0.16918945,-0.20302734,0.12318130,1.49148703,-0.14400975,0.07000000,0.00366300,-0.18251783,0.12000000,-0.12000000,-0.01229746,-4.90262985,5.49255133,1.39239836,0.13964847,0.57631254,-0.28998351,
2136,1.28466034,-1.49507213,5.02232122,6.00000000,0.16918945,-0.20947266,-0.00341434,0.74206418,-0.10100058,0.07000000,0.00366300,-0.01516341,0.05700925,-0.05739456,-0.01229746,-3.09970474,3.14333820,0.93615520,0.04243580,0.61538458,-0.16655034,
2146,7.74541378,-0.73850441,8.88895702,6.00000000,0.09345703,-0.10312500,-0.07616401,0.10989358,-0.06550174,0.07000000,0.00366300,-0.05439668,-0.12000000,0.12000000,-0.01229746,-2.03330851,2.21831346,0.35135460,-0.44182384,0.61538458,-0.13521828,
2156,8.07341957,0.19403715,14.96663761,6.00000000,-0.17724609,0.21108398,0.30954179,-0.27128521,-0.02488386,0.07000000,0.00366300,-0.29033941,-0.12000000,0.12000000,-0.01229746,-2.29161739,3.25154853,-0.08967257,-0.53038138,0.64102566,-0.21800783,
2166,3.29818392,-1.61957061,20.53136063,6.00000000,-0.17241211,0.22397462,-0.10768619,-0.34130102,-0.07954120,0.07000000,0.00366300,0.02934185,-0.12000000,0.12000000,-0.01229746,-3.69835258,3.59188771,-0.25933456,-0.29764926,0.64102566,-0.29750201,
2176,3.14615226,0.16171543,15.84291553,6.00000000,-0.17563477,0.22558594,-0.07650478,-0.60966092,-0.05748415,0.07000000,0.00366300,-0.23783919,-0.12000000,0.12000000,-0.01229746,-4.48549604,5.26565838,-0.50099897,-0.33769745,0.68253970,-0.40967292,
2186,0.13544357,-2.15587187,10.30632401,6.00000000,-0.17885742,0.21430664,-0.08244161,-0.24335709,-0.02227738,0.07000000,0.00366300,-0.16105932,-0.12000000,0.12000000,-0.01229746,-5.45764494,5.98124361,-0.31441694,-0.19929548,0.68253970,-0.45976886,
2196,-1.21967459,0.68484849,5.69988012,6.00000000,-0.18530273,0.21591797,-0.06843411,0.19523530,-0.07946843,0.07000000,0.00366300,-0.18158849,-0.12000000,0.12000000,-0.01229746,-6.32856417,6.92023039,0.04529750,-0.07274011,0.73015869,-0.50132072,
2206,-1.80266273,2.02440429,4.51714468,6.00000000,-0.17724609,0.21752930,-0.00318400,0.69474322,-0.08776926,0.07000000,0.00366300,-0.18119569,-0.06596659,0.06397681,-0.01229746,-6.95339155,7.54680347,0.50433123,0.03701807,0.73015869,-0.51402831,
2216,-3.32417798,1.31093228,5.30603409,6.00000000,-0.10312500,0.12890625,0.09715135,1.22695982,-0.10795952,0.07000000,0.00366300,-0.08832821,0.12000000,-0.12000000,-0.01229746,-7.17330313,7.45081043,1.01580954,0.20066008,0.75213671,-0.47978470,
2226,-1.31663978,0.70041084,4.41658831,6.00000000,0.18369141,-0.21269532,0.06758256,1.50386620,-0.08335762,0.07000000,0.00366300,-0.02751055,0.12000000,-0.12000000,-0.01229746,-5.67755604,5.76307726,1.36055827,0.18082941,0.76678872,-0.33224773,
2236,1.22121406,-0.06573372,4.99837923,6.00000000,0.18046875,-0.21591797,0.07805385,0.83131182,-0.01184017,0.07000000,0.00366300,0.08855732,0.06554177,-0.06352818,-0.01229746,-4.04218245,3.75071239,0.99031496,0.07081685,0.76678872,-0.22147073,
2246,6.32206059,-0.77681166,8.33709335,6.00000000,0.09506836,-0.11601563,-0.16381063,0.19151422,0.10232202,0.07000000,0.00366300,0.14410020,-0.12000000,0.12000000,-0.01229746,-2.84139609,2.37539315,0.42400318,-0.32566112,0.76678872,-0.16646190,
2256,6.47528982,1.28339899,14.50814819,6.00000000,-0.18691406,0.22075196,0.08841630,-0.39869848,0.16237107,0.07000000,0.00366300,-0.14279178,-0.12000000,0.12000000,-0.01229746,-3.06130743,3.54127288,-0.15769359,-0.42736980,0.76678872,-0.26355073,
2266,3.14375806,-0.74568701,19.48210144,6.00000000,-0.17241211,0.20786133,-0.18541124,-0.30762973,0.21322821,0.07000000,0.00366300,0.06442230,-0.12000000,0.12000000,-0.01229746,-4.15213823,3.94095349,-0.25721034,-0.31009701,0.76800978,-0.32793367,
2276,3.48014331,0.05517346,16.39956665,6.00000000,-0.18046875,0.21752930,-0.10755599,-0.55285990,0.13697998,0.07000000,0.00366300,-0.09576708,-0.12000000,0.12000000,-0.01229746,-5.14523029,5.46462584,-0.45936245,-0.35337916,0.76800978,-0.43921685,
2286,2.41472363,0.40113559,12.54011440,6.00000000,-0.18691406,0.21752930,-0.11500133,-0.06247163,0.14727511,0.07000000,0.00366300,-0.12713613,-0.12000000,0.12000000,-0.01229746,-6.00218725,6.42106628,-0.17479211,-0.32871130,0.76923072,-0.48663718,
2296,-0.53253871,-0.45000309,8.80396271,6.00000000,-0.17724609,0.21269532,-0.01293938,0.19454817,0.10700828,0.07000000,0.00366300,-0.07916576,-0.12000000,0.12000000,-0.01229746,-6.91673946,7.17853880,0.08838697,-0.15634832,0.76923072,-0.53028733,
2306,-1.53331506,0.64654130,5.79205704,6.00000000,-0.17885742,0.21914062,-0.04290096,0.75840527,0.07726841,0.07000000,0.00366300,-0.11288713,-0.12000000,0.12000000,-0.01229746,-7.60963535,7.98488140,0.56321293,-0.02590871,0.77167273,-0.55123216,
2316,-2.57718706,-0.02622940,4.51953888,6.00000000,-0.19174805,0.21591797,-0.00955929,1.30172920,0.06948963,0.07000000,0.00366300,-0.11721602,0.06964673,-0.07194613,-0.01229746,-8.34092808,8.73537254,1.09078050,0.11433539,0.78632474,-0.56748807,
2326,-3.36128807,-0.37099445,5.42933559,6.00000000,0.08862305,-0.11923828,0.00119491,1.73330331,0.01880394,0.07000000,0.00366300,-0.01532956,0.12000000,-0.12000000,-0.01229746,-7.47524500,7.52411461,1.54507256,0.23634490,0.78632474,-0.45376855,
2336,1.85807168,-0.16868439,1.99485302,6.00000000,0.17563477,-0.21108398,0.18678033,1.36661804,0.00880155,0.07000000,0.00366300,0.15977037,0.08457206,-0.08105718,-0.01229746,-6.02138615,5.49604177,1.43050969,0.05685914,0.78876674,-0.32983762,
2346,3.97454596,-1.37655914,6.43729448,6.00000000,0.13051757,-0.14985351,0.05501820,0.74668396,-0.00050865,0.07000000,0.00366300,0.26960373,-0.12000000,0.12000000,-0.01229746,-4.74555016,3.86241364,0.94865620,-0.18324025,0.78876674,-0.25569236,
2356,6.93976498,0.40951532,13.91079521,6.00000000,-0.17241211,0.20302734,0.01549466,0.13116507,0.08269435,0.07000000,0.00366300,0.02911538,-0.12000000,0.12000000,-0.01229746,-4.90437508,4.82583523,0.36554211,-0.42686963,0.80341876,-0.34284556,
2366,2.09509778,-2.56288600,20.53136063,6.00000000,-0.16435547,0.20786133,0.09937279,0.29328662,0.12629038,0.07000000,0.00366300,0.11257568,-0.12000000,0.12000000,-0.01229746,-5.69675446,5.33547163,0.31037694,-0.22082990,0.80341876,-0.39666903,
2376,3.65970850,-1.44599104,14.98698902,6.00000000,-0.19335937,0.22719726,-0.13564898,-0.07629806,0.10035509,0.07000000,-0.00183159,-0.08178665,-0.12000000,0.12000000,-0.01229746,-6.88532400,7.16283131,0.03876472,-0.36530685,0.80341876,-0.53225410,
2386,0.71723461,0.49810079,11.15626621,6.00000000,-0.17724609,0.21752930,-0.05569262,0.46739063,0.10285282,0.07000000,-0.00183159,-0.09369455,-0.12000000,0.12000000,-0.01229746,-7.71260977,8.02153301,0.34341228,-0.22784650,0.80341876,-0.57329643,
2396,-1.71168303,0.94821072,9.25048161,6.00000000,-0.18046875,0.21430664,-0.04831265,0.67856151,0.04843828,0.07000000,-0.00183159,-0.00671299,-0.12000000,0.12000000,-0.01229746,-8.68126774,8.70221138,0.58298331,-0.03153326,0.82417583,-0.61788040,
2406,-1.87329161,1.70118713,5.99676132,6.00000000,-0.18046875,0.21914062,0.11230023,1.17923605,-0.02356564,0.07000000,-0.00183159,-0.05303845,-0.01231366,0.01282933,-0.01229746,-9.36718273,9.55567741,1.00940382,0.06053688,0.82539678,-0.64404094,
2416,-2.68253183,1.19481349,4.49200535,6.00000000,-0.02255859,0.02578125,0.20098013,1.55227995,-0.03356923,0.07000000,-0.00183159,-0.03004369,0.12000000,-0.12000000,-0.01229746,-9.17868710,9.27642536,1.39839721,0.17309442,0.82539678,-0.59659445,
2426,-0.56486040,0.95659041,1.97929072,6.00000000,0.18046875,-0.21430664,0.09591184,1.58676589,-0.08705781,0.07000000,-0.00183159,0.22902060,0.12000000,-0.12000000,-0.01229746,-8.12974358,7.37401628,1.54077280,0.15738730,0.86080587,-0.47331509,
2436,1.19846916,0.08390388,3.08660913,6.00000000,0.16918945,-0.19980469,0.17772807,1.11087155,-0.03209098,0.07000000,-0.00183159,0.28142720,0.04877664,-0.04186736,-0.01229746,-6.01789522,5.09636164,1.24494541,0.05155550,0.86080587,-0.32861874,
2446,3.57710862,-0.34346113,7.25611115,6.00000000,0.06767578,-0.06928711,-0.09856146,0.48090142,0.06796229,0.07000000,-0.00183159,0.22346288,-0.12000000,0.12000000,-0.01229746,-4.63210392,3.91477346,0.70676130,-0.13627991,0.88034189,-0.27179050,
2456,4.61499500,1.35402787,15.82855034,6.00000000,-0.17885742,0.21269532,-0.16841301,0.00329710,0.20707850,0.07000000,-0.00183159,-0.22144887,-0.12000000,0.12000000,-0.01229746,-4.52389383,5.29183865,0.20342928,-0.26715505,0.88034189,-0.35845840,
2466,0.99496198,-1.38493884,20.53136063,6.00000000,-0.16918945,0.21591797,-0.07479975,0.07540447,0.22905999,0.07000000,-0.00183159,-0.04232398,-0.12000000,0.12000000,-0.01229746,-5.84685278,5.98822498,0.11514927,-0.16946521,0.88034189,-0.44212481,
2476,2.38359904,1.00327730,15.78904629,6.00000000,-0.18691406,0.21430664,-0.21099503,-0.18640114,0.09872270,0.07000000,-0.00183159,-0.12176598,-0.12000000,0.12000000,-0.01229746,-7.16632223,7.57123804,-0.09376536,-0.27518946,0.88034189,-0.56861985,
2486,-0.20812437,0.35085738,11.36216736,6.00000000,-0.18046875,0.20947266,-0.05911938,0.29863808,0.05218435,0.07000000,-0.00183159,-0.10440242,-0.12000000,0.12000000,-0.01229746,-8.07214737,8.41423225,0.18591189,-0.14007191,1.00000000,-0.61395711,
2496,-1.70928884,0.59027755,9.62517357,6.00000000,-0.18369141,0.21752930,0.00365107,0.49492717,0.01171376,0.07000000,-0.04212463,-0.12687600,-0.12000000,0.12000000,-0.01229746,-8.95528412,9.37416267,0.40650964,-0.00024082,1.00000000,-0.66736686,
2506,-1.81822503,-0.28360608,5.84472942,6.00000000,-0.18046875,0.21591797,0.03131208,1.08309066,-0.08126018,0.07000000,-0.04212463,-0.04518192,-0.04439256,0.04661761,-0.01229746,-9.72148418,9.85936546,0.88788223,0.07086112,1.00000000,-0.67837358,
2516,-1.95110321,0.34128055,3.15843511,6.00000000,-0.07089844,0.09667969,0.11134992,1.44291627,-0.03602877,0.07000000,-0.10989010,-0.11806864,0.07035036,-0.06980442,-0.01229746,-10.09498501,10.48768425,1.28998148,0.13595518,1.00000000,-0.68590319,
2526,-4.37642956,-0.71815372,3.88986373,6.00000000,0.09667969,-0.12246094,0.25056547,1.70717347,-0.03402715,0.07000000,-0.10989010,-0.08836967,0.12000000,-0.12000000,-0.01229746,-8.99193668,9.27816963,1.58983088,0.36730766,1.00000000,-0.57496977,
2536,-0.64746040,-0.80314785,2.22828770,6.00000000,0.17241211,-0.19658203,0.03470638,1.45818543,-0.03919103,0.07000000,-0.14285713,0.16312715,0.12000000,-0.12000000,-0.01229746,-7.43335724,6.89754152,1.50660074,0.31331736,1.00000000,-0.43123627,
2546,1.96341658,-1.94997048,7.02626801,6.00000000,0.17402343,-0.21430664,0.05870885,0.94203037,-0.05117297,0.07000000,-0.14285713,0.29467672,0.03768045,-0.02706960,-0.01229746,-5.61821461,4.65304804,1.10566938,0.07040507,1.00000000,-0.30711329,
2556,3.74470258,0.31135303,15.57955360,6.00000000,0.05800781,-0.04995117,-0.00882849,0.32430738,0.04080692,0.07000000,-0.14835173,0.19200706,-0.12000000,0.12000000,-0.01229746,-4.44709921,3.83274317,0.54275113,-0.13817509,1.00000000,-0.27410841,
2566,5.52479172,-2.45394993,19.64251328,6.00000000,-0.16596679,0.21914062,0.28259671,-0.38336408,0.12998518,0.07000000,-0.14835173,0.23302358,-0.12000000,0.12000000,-0.01229746,-5.59028959,4.83630753,-0.11576301,-0.35622072,1.00000000,-0.40604672,
2576,0.62266362,-1.80990970,20.53136063,6.00000000,-0.18369141,0.20302734,-0.19310103,-0.57384318,0.11517543,0.07000000,-0.14835173,0.11603321,-0.12000000,0.12000000,-0.01229746,-6.74744320,6.37219715,-0.43427154,-0.11241803,1.00000000,-0.53292596,
2586,-1.77153814,0.91588897,13.67736053,6.00000000,-0.17402343,0.21752930,-0.12043685,-0.43597510,0.23115246,0.07000000,-0.14835173,-0.02752642,-0.12000000,0.12000000,-0.01229746,-7.82256603,7.93601227,-0.42884693,0.01930509,1.00000000,-0.63305998,
2596,-2.19531178,1.53239596,7.73614883,6.00000000,-0.17724609,0.22236328,-0.14027797,-0.06876130,0.18380977,0.07000000,-0.14835173,-0.00643741,-0.12000000,0.12000000,-0.01229746,-8.74235439,8.77202511,-0.17305061,0.09546534,1.00000000,-0.68047625,
2606,-3.31819248,2.83843303,4.51235628,6.00000000,-0.17080078,0.23041992,0.04264123,0.51254547,0.07861861,0.07000000,-0.14835173,0.03902693,0.05488648,-0.04984331,-0.01229746,-9.72671986,9.59931087,0.31243658,0.23045649,1.00000000,-0.71250910,
2616,-3.90596890,2.32128549,1.96612263,6.00000000,0.07895508,-0.07573242,0.12956768,1.11864436,-0.02530614,0.07000000,-0.14835173,0.13182029,0.12000000,-0.12000000,-0.01229746,-9.25897121,8.82263947,0.88141835,0.37455207,1.00000000,-0.62176692,
2626,-1.79308593,0.90870637,0.02083375,6.00000000,0.17241211,-0.20625000,0.36536658,1.23312068,-0.05450352,0.07000000,-0.14835173,0.23636188,0.12000000,-0.12000000,-0.01229746,-7.57123804,6.78758526,1.13468242,0.39340317,1.00000000,-0.46064243,
2636,-1.43395567,-0.70857686,2.86753964,6.00000000,0.16757813,-0.20786133,0.28409684,0.86151910,-0.03928022,0.07000000,-0.14835173,0.38240799,0.12000000,-0.12000000,-0.01229746,-5.72467995,4.46629763,0.94474256,0.35840672,1.00000000,-0.31631809,
2646,1.14699376,-1.03299117,8.08689880,6.00000000,0.16918945,-0.21591797,-0.00938325,0.44194585,0.12441605,0.07000000,-0.14468873,0.28919393,0.06662399,-0.05666439,-0.01229746,-3.74373126,2.80648947,0.58439589,0.14161685,1.00000000,-0.20505804,
2656,3.68365049,1.16368890,17.59188080,6.00000000,0.09667969,-0.10634766,-0.31627125,-0.10926315,0.32342833,0.07000000,-0.14468873,0.10670771,-0.12000000,0.12000000,-0.01229746,-2.27416396,1.95127821,0.08628657,-0.09777553,1.00000000,-0.15442117,
2666,8.45170307,-0.58886677,20.53136063,6.00000000,-0.16918945,0.21269532,-0.40287197,-1.03171897,0.55758512,0.07000000,-0.11538470,-0.12460470,-0.12000000,0.12000000,-0.01229746,-3.46273303,3.91826415,-0.69832462,-0.48017347,1.00000000,-0.33438709,
2676,0.73399401,0.61062825,20.53136063,6.00000000,-0.16918945,0.22236328,-0.34358186,-1.45136654,0.40380728,0.07000000,-0.09157509,0.16328940,-0.12000000,0.12000000,-0.01229746,-5.59552574,5.05970955,-1.20983815,-0.13556117,1.00000000,-0.49811721,
2686,-1.70809174,1.92504501,10.44877911,6.00000000,-0.17402343,0.21914062,-0.13535258,-1.02764857,0.18095550,0.07000000,-0.09157509,0.11640888,-0.12000000,0.12000000,-0.01229746,-6.75616980,6.38441420,-1.07514608,0.00986354,1.00000000,-0.58256441,
2696,-4.23038340,-0.33029300,5.65917873,6.00000000,-0.17885742,0.22075196,0.23290925,-0.55315429,0.06887591,0.07000000,-0.08974367,0.22943169,-0.06625469,0.07575931,-0.01229746,-7.99360800,7.23788071,-0.71034372,0.21696067,1.00000000,-0.63443947,
2706,-4.26031065,1.27741337,1.47890258,6.00000000,-0.10795899,0.13857421,0.07313238,-0.03317630,0.02802608,0.07000000,-0.08974367,0.29721120,0.12000000,-0.12000000,-0.01229746,-8.53466034,7.56251144,-0.23899359,0.37871549,1.00000000,-0.63151568,
2716,-5.91350698,0.42507762,-0.19464441,6.00000000,0.16435547,-0.20302734,0.27706519,0.70980477,-0.06454051,0.07000000,-0.06776565,0.29435673,0.12000000,-0.12000000,-0.01229746,-6.84169054,5.87128735,0.41950631,0.61021173,1.00000000,-0.45243877,
2726,-2.81062174,-0.94440573,-1.32111633,6.00000000,0.16596679,-0.20302734,0.23349096,0.69567674,0.01983780,0.07000000,-0.06776565,0.41041309,0.12000000,-0.12000000,-0.01229746,-4.57450819,3.22187781,0.60994232,0.66080117,1.00000000,-0.25060797,
2736,-2.74238682,-1.41127503,3.71388984,6.00000000,0.17241211,-0.21108398,0.03610701,0.41032815,0.00050345,0.07000000,-0.06593406,0.56389916,0.12000000,-0.12000000,-0.01229746,-2.59006858,0.74001962,0.46327925,0.59771955,1.00000000,-0.09161054,
2746,1.73237610,-1.89610088,7.52186775,6.00000000,0.17080078,-0.21752930,-0.21429695,0.10486523,0.10550588,0.07000000,-0.06593406,0.45344663,0.12000000,-0.12000000,-0.01229746,-0.84823000,-0.61784661,0.20271456,0.26470828,1.00000000,0.00664291,
2756,2.53443360,-3.27516103,19.10022736,6.00000000,0.18691406,-0.21430664,0.29923496,-0.21351139,0.08924579,0.07000000,-0.06410265,0.37834752,-0.12000000,0.12000000,-0.01229746,-0.06283185,-1.16937065,-0.10066098,-0.10150707,1.00000000,0.03447699,
2766,5.09982061,1.55394375,20.53136063,6.00000000,-0.16757813,0.20625000,-0.03539579,-2.02150345,0.05552590,0.07000000,-0.03663003,0.30570266,-0.12000000,0.12000000,-0.01229746,-1.60570288,0.62133718,-1.44463360,-0.19770731,1.00000000,-0.19487515,
2776,2.34050345,-2.90645409,18.19042969,6.00000000,-0.18369141,0.20786133,-0.15031518,-2.19592977,0.14322245,0.07000000,-0.03663003,0.21783021,-0.12000000,0.12000000,-0.01229746,-3.31263494,2.60752177,-1.95257986,-0.25047049,1.00000000,-0.37431335,
2786,-2.50176954,1.96335220,10.96712399,6.00000000,-0.17885742,0.21914062,-0.36817285,-1.73325753,0.11186285,0.07000000,-0.03663003,0.00626087,-0.12000000,0.12000000,-0.01229746,-4.07883453,4.05789042,-1.79089165,0.04771730,1.00000000,-0.44645879,
2796,-4.14299488,1.74667692,4.31124306,6.00000000,-0.18691406,0.22397462,0.02164784,-1.04661155,-0.00108321,0.07000000,-0.03663003,0.03686175,-0.07423075,0.07813819,-0.01229746,-5.13824940,5.01956701,-1.27588844,0.25436714,1.00000000,-0.48422834,
2806,-4.47938013,2.95814300,2.22589350,6.00000000,-0.11762695,0.14018555,0.05948207,-0.16684021,-0.04794008,0.07000000,-0.03663003,0.09536918,0.12000000,-0.12000000,-0.01229746,-5.58679914,5.27089453,-0.50547999,0.41975653,1.00000000,-0.45220539,
2816,-4.89597130,0.12101401,0.70677257,6.00000000,0.16918945,-0.21269532,0.18736015,0.40117818,-0.08561933,0.07000000,-0.03663003,0.21995965,0.12000000,-0.12000000,-0.01229746,-4.41219234,3.68439007,0.12165213,0.58457029,1.00000000,-0.29924616,
2826,-2.75196362,0.65252680,-0.41012254,6.00000000,0.16918945,-0.20302734,0.33536941,0.23898864,-0.15276496,0.07000000,-0.03663003,0.30835903,0.12000000,-0.12000000,-0.01229746,-2.33699584,1.31074226,0.19773665,0.62437409,1.00000000,-0.12394677,
2836,-1.22925138,-1.22692156,4.66917658,6.00000000,0.17080078,-0.21430664,0.18732661,-0.11731654,-0.08546291,0.07000000,-0.03663003,0.22666964,0.12000000,-0.12000000,-0.01229746,-0.21991149,-0.52708948,-0.03210160,0.46236399,1.00000000,0.00922819,
2846,4.18044758,-2.17622256,9.94360256,6.00000000,0.17724609,-0.22075196,-0.17515543,-0.52916408,0.12807997,0.07000000,-0.03479862,0.02539256,-0.12000000,0.12000000,-0.01229746,1.11177480,-1.17984259,-0.38785422,-0.03232267,1.00000000,0.05774541,
2856,3.71597219,-0.37817705,20.53136063,6.00000000,-0.16757813,0.20463867,0.06514559,-0.58912927,0.25386858,0.07000000,-0.03113562,-0.28510314,-0.12000000,0.12000000,-0.01229746,0.58293998,0.42236969,-0.51860297,-0.13002054,1.00000000,-0.03337629,
2866,3.76625037,0.54478770,20.53136063,6.00000000,-0.17885742,0.21591797,-0.38222778,-1.34144449,0.26189515,0.07000000,-0.03113562,-0.14589378,-0.12000000,0.12000000,-0.01229746,-2.16246295,2.63544726,-1.07988429,-0.39090079,1.00000000,-0.26503974,
2876,-1.81942213,0.31135303,18.23951149,6.00000000,-0.17885742,0.21591797,-0.32757080,-1.44564712,0.03897395,0.07000000,-0.03113562,0.00898083,-0.12000000,0.12000000,-0.01229746,-3.65821028,3.61981273,-1.31846297,0.00114131,1.00000000,-0.37773299,
2886,-1.66499615,3.04553127,7.36744165,6.00000000,-0.17241211,0.21591797,0.17339382,-0.90029311,-0.07304372,0.07000000,-0.03113562,-0.10076917,-0.12000000,0.12000000,-0.01229746,-4.84503412,5.19759035,-1.02161205,0.04972287,1.00000000,-0.46045199,
2896,-5.07194519,-0.64872181,3.35835099,6.00000000,-0.18369141,0.22719726,0.12561446,-0.18876998,-0.23254371,0.07000000,-0.02564102,0.07571301,0.10077111,-0.09862259,-0.01229746,-5.85208893,5.58505344,-0.44241977,0.32553807,1.00000000,-0.46946919,
2906,-5.55557394,0.36881387,-0.57532245,6.00000000,0.14018555,-0.16596679,0.29410538,0.51283544,-0.30877733,0.07000000,-0.02564102,0.15026988,0.12000000,-0.12000000,-0.01229746,-4.90612078,4.39822960,0.21991360,0.57310414,1.00000000,-0.33777046,
2916,-3.45346475,-0.15910760,-0.92966431,6.00000000,0.16596679,-0.20141602,0.28979743,0.51672012,-0.23581907,0.07000000,-0.00549459,0.20703301,0.12000000,-0.12000000,-0.01229746,-2.72096825,2.02632713,0.42312229,0.68010134,1.00000000,-0.14866996,
2926,-1.32023108,-1.72491550,3.20153069,6.00000000,0.17080078,-0.20947266,0.17013992,0.25154802,-0.20448089,0.07000000,-0.00549459,0.32621747,0.12000000,-0.12000000,-0.01229746,-0.68765974,-0.39444441,0.29594567,0.54278755,1.00000000,0.01134409,
2936,-0.31227216,-1.16946065,6.06499577,6.00000000,0.17724609,-0.22236328,-0.14299116,-0.17851010,-0.08509692,0.07000000,-0.00366300,0.13305518,0.12000000,-0.12000000,-0.01229746,0.96865773,-1.39626336,-0.04341534,0.36903775,1.00000000,0.08677825,
2946,6.67759991,1.54676116,20.10339737,6.00000000,0.17563477,-0.22719726,-0.14509445,-0.29875836,0.07508630,0.07000000,-0.00366300,-0.24417754,-0.12000000,0.12000000,-0.01229746,2.34572244,-1.53239918,-0.22449477,-0.34511989,1.00000000,0.13064404,
2956,7.65802526,-2.67182231,20.53136063,6.00000000,-0.15629883,0.20947266,-0.46037859,-1.34862006,0.25687096,0.07000000,-0.00366300,-0.05490097,-0.12000000,0.12000000,-0.01229746,0.20594886,-0.03141592,-1.00194752,-0.38349178,1.00000000,-0.06725690,
2966,1.15776765,1.31572068,20.53136063,6.00000000,-0.16757813,0.21269532,-0.16282086,-1.77644110,0.16237172,0.07000000,-0.00366300,-0.02799661,-0.12000000,0.12000000,-0.01229746,-1.61093891,1.70344138,-1.52429616,-0.15844722,1.00000000,-0.24239098,
2976,-1.75717282,1.73829722,12.54609966,6.00000000,-0.18530273,0.22236328,-0.32281560,-1.44370592,0.07501358,0.07000000,-0.00366300,-0.08382092,-0.12000000,0.12000000,-0.01229746,-2.68082595,2.95658755,-1.45748031,0.00394541,1.00000000,-0.32582974,
2986,-3.87125301,0.77822238,4.89303398,6.00000000,-0.18530273,0.21752930,0.21275176,-0.83292031,-0.07439948,0.07000000,-0.00183159,-0.05754345,-0.07856569,0.07958429,-0.01229746,-3.96189737,4.15213823,-1.02291870,0.21089274,1.00000000,-0.38707948,
2996,-3.82696033,2.39789987,2.04034281,6.00000000,-0.12407227,0.14018555,0.08601137,0.02613318,-0.16487968,0.07000000,-0.00183159,0.12236740,0.12000000,-0.12000000,-0.01229746,-4.66177464,4.25162220,-0.29377657,0.35382372,1.00000000,-0.36199540,
3006,-5.18207836,0.06235606,-0.09408793,6.00000000,0.16596679,-0.21108398,0.27069265,0.53712124,-0.18905076,0.07000000,-0.00183159,0.09227469,0.12000000,-0.12000000,-0.01229746,-3.14333820,2.83092403,0.28144443,0.56838500,1.00000000,-0.20621006,
3016,-1.77512944,-0.87856519,-1.85502326,6.00000000,0.17402343,-0.20302734,0.29771188,0.48963034,-0.12387282,0.07000000,-0.00183159,0.24004538,0.12000000,-0.12000000,-0.01229746,-1.09257603,0.29146999,0.42352575,0.59191656,1.00000000,-0.02049896,
3026,-1.16460800,-1.39092433,3.44813347,6.00000000,0.17563477,-0.22236328,0.06452846,0.12814513,-0.14089665,0.07000000,-0.00183159,0.26123068,0.12000000,-0.12000000,-0.01229746,0.47123891,-1.33168626,0.21166550,0.47575068,1.00000000,0.08479652,
3036,1.08594167,-1.36937654,7.72657204,6.00000000,0.17080078,-0.21752930,-0.16426508,-0.14534244,-0.00316920,0.07000000,-0.00183159,0.01774308,0.11684010,-0.11727764,-0.01229746,2.06123376,-2.10835791,-0.04505827,0.21486849,1.00000000,0.15541215,
3046,3.16770005,-1.64949811,17.98452950,6.00000000,0.18046875,-0.22397462,0.15411232,-0.23314507,0.00209426,0.07000000,-0.00183159,-0.09428658,-0.12000000,0.12000000,-0.01229746,2.91295433,-2.60228610,-0.17942728,-0.11197045,1.00000000,0.19645134,
3056,7.21868944,-2.64788032,20.53136063,6.00000000,-0.16596679,0.20625000,-0.20154522,-1.66916633,0.08831813,0.07000000,-0.00183159,0.13401522,-0.12000000,0.12000000,-0.01229746,0.58817595,-1.04370689,-1.21599507,-0.36749402,1.00000000,-0.03043073,
3066,2.13340497,-1.37895334,20.27697754,6.00000000,-0.17402343,0.21430664,-0.09697644,-1.84476566,0.05049296,0.07000000,-0.00183159,0.02336350,-0.12000000,0.12000000,-0.01229746,-0.99483770,0.91978854,-1.63394868,-0.22767764,1.00000000,-0.19741979,
3076,-1.39923966,0.85004842,10.49187469,6.00000000,-0.17724609,0.20947266,-0.24050497,-1.43993759,0.04378806,0.07000000,-0.00183159,-0.14343244,-0.12000000,0.12000000,-0.01229746,-1.85528505,2.32477856,-1.49275804,-0.04743032,1.00000000,-0.27299461,
3086,-4.62662363,0.19643135,3.90662313,6.00000000,-0.18530273,0.21914062,0.08251974,-0.81415337,-0.12689169,0.07000000,-0.00183159,-0.01259355,-0.04056206,0.04197901,-0.01229746,-3.04559946,3.07003403,-1.02378583,0.23628917,1.00000000,-0.31101096,
3096,-4.27946424,4.05468750,0.55593783,6.00000000,-0.06284180,0.08701172,0.01839068,-0.04880542,-0.21293123,0.07000000,-0.00183159,0.01806821,0.12000000,-0.12000000,-0.01229746,-3.31787109,3.24980307,-0.34886152,0.42275044,1.00000000,-0.27682209,
3106,-4.72837734,-0.28600028,-0.10246763,6.00000000,0.17080078,-0.21108398,0.33817995,0.47531575,-0.19598250,0.07000000,-0.00183159,0.09887406,0.12000000,-0.12000000,-0.01229746,-1.80117977,1.46258593,0.22038791,0.60661083,1.00000000,-0.10759516,
3116,-2.18214369,-0.44282049,-0.77523834,6.00000000,0.17724609,-0.21430664,0.33717981,0.29291302,-0.19479248,0.07000000,-0.00183159,0.10525321,0.12000000,-0.12000000,-0.01229746,0.28623399,-0.64751714,0.26625586,0.62897736,1.00000000,0.05583135,
3126,-0.61154735,-0.77681166,4.56742287,6.00000000,0.17080078,-0.21591797,0.03304074,0.00097279,-0.08435823,0.07000000,-0.00183159,-0.03974815,0.12000000,-0.12000000,-0.01229746,1.68773329,-1.55683362,0.07636957,0.44407892,1.00000000,0.12942219,
3136,1.91433549,-1.41007793,9.31991291,6.00000000,0.17885742,-0.21752930,-0.24865893,-0.39316413,0.11726706,0.07000000,-0.00183159,-0.16535500,-0.02945884,0.02693321,-0.01229746,3.01418352,-2.46091413,-0.25867346,0.09778255,1.00000000,0.18887885,
3146,4.53000069,-0.43922919,20.53136063,6.00000000,-0.04189453,0.04189453,-0.04383762,-0.53219217,0.15787245,0.07000000,-0.00183159,-0.39977455,-0.12000000,0.12000000,-0.01229746,3.24456692,-1.91462612,-0.44470501,-0.20225661,1.00000000,0.16268769,
3156,7.31086588,0.79258758,20.53136063,6.00000000,-0.16113281,0.21430664,-0.48582470,-1.30045068,0.29993370,0.07000000,-0.00183159,-0.25942838,-0.12000000,0.12000000,-0.01229746,0.55501467,0.29146999,-1.03025162,-0.55008429,1.00000000,-0.06841697,
3166,-0.58042276,2.11777830,19.91305923,6.00000000,-0.17241211,0.21108398,-0.18271247,-1.42489028,-0.04621473,0.07000000,-0.00183159,0.11261754,-0.12000000,0.12000000,-0.01229746,-1.19380522,0.80983281,-1.28718245,-0.06267753,1.00000000,-0.17439568,
3176,-1.32262528,1.93103051,8.89853382,6.00000000,-0.18208008,0.22075196,0.44159219,-1.08464944,-0.14414123,0.07000000,-0.00183159,-0.00767572,-0.12000000,0.12000000,-0.01229746,-2.25147462,2.29510808,-1.14200616,-0.02794959,1.00000000,-0.26022911,
3186,-3.42473435,-0.64513052,3.23864079,6.00000000,-0.17402343,0.21269532,0.03868466,-0.35666052,-0.18883663,0.07000000,-0.00183159,0.03457902,-0.06061801,0.06339195,-0.01229746,-3.17126322,3.05432630,-0.59693432,0.16463566,0.98901093,-0.28267768,
3196,-4.68767595,-1.39810693,4.12808657,6.00000000,-0.09345703,0.12084961,0.10868078,0.37163067,-0.16461311,0.07000000,-0.00183159,-0.10257112,0.12000000,-0.12000000,-0.01229746,-3.20791531,3.54301834,0.08166903,0.35290349,0.98901093,-0.25099754,
3206,-4.01370811,-0.36261475,1.65727067,6.00000000,0.17080078,-0.20463867,-0.02509440,0.82223439,-0.08519544,0.07000000,-0.00183159,-0.15395918,0.12000000,-0.12000000,-0.01229746,-1.73136652,2.23402143,0.59851891,0.48111272,0.98901093,-0.10550730,
3216,-1.22087169,-1.41965485,1.02400422,6.00000000,0.17402343,-0.20786133,-0.05701089,0.49557066,-0.00884259,0.07000000,-0.00183159,0.01477540,0.12000000,-0.12000000,-0.01229746,0.36477381,-0.41364303,0.52474672,0.45044100,0.98778999,0.06960791,
3226,-0.85096753,-0.76723480,2.68438315,6.00000000,0.17724609,-0.21914062,-0.18522257,0.11620779,-0.04319167,0.07000000,-0.00183159,0.13253303,0.12000000,-0.12000000,-0.01229746,1.41022611,-1.84132230,0.23752883,0.38456240,0.98778999,0.14196950,
3236,4.32409954,1.62696683,11.06408882,6.00000000,0.17885742,-0.21752930,-0.17066793,-0.27963066,-0.01177874,0.07000000,-0.00183159,-0.08676805,-0.12000000,0.12000000,-0.01229746,2.52549148,-2.23227620,-0.12913826,-0.08694556,0.98778999,0.17142664,
3246,7.79688883,-2.86934400,19.39710808,6.00000000,-0.16757813,0.21914062,0.44009417,-0.81441575,0.06879655,0.07000000,-0.00183159,-0.03759269,-0.12000000,0.12000000,-0.01229746,1.35263014,-1.22696650,-0.60454983,-0.40579760,0.98778999,0.05224529,
3256,3.04080725,-0.86539710,20.53136063,6.00000000,-0.17724609,0.20463867,-0.21245944,-0.96515572,-0.08378565,0.07000000,-0.00183159,-0.09705089,-0.12000000,0.12000000,-0.01229746,-0.42411500,0.73478359,-0.84175897,-0.28370318,0.98778999,-0.10826223,
3266,0.56041437,-1.18622017,16.95741653,6.00000000,-0.18530273,0.22719726,-0.30777657,-0.96663028,-0.01703455,0.07000000,-0.00183159,-0.07381578,-0.12000000,0.12000000,-0.01229746,-1.65282679,1.88844621,-0.91590905,-0.16241595,0.98778999,-0.20469478,
3276,-1.06285441,0.89553827,8.11922073,6.00000000,-0.17563477,0.21430664,-0.06472778,-0.57963645,-0.05785111,0.07000000,-0.00183159,-0.27302408,-0.12000000,0.12000000,-0.01229746,-2.51676464,3.41735482,-0.67892915,-0.05970617,0.98656893,-0.27781114,
3286,-3.98976588,1.58626544,3.54270434,6.00000000,-0.17724609,0.20786133,-0.06030195,0.10183956,-0.22375579,0.07000000,-0.00183159,-0.14105499,0.01074874,-0.01285209,-0.01229746,-3.45575190,3.89208412,-0.13349354,0.18350014,0.98656893,-0.29012552,
3296,-4.86604357,2.27699256,0.60501897,6.00000000,0.00644531,-0.01450195,0.10868485,0.63519377,-0.26731792,0.07000000,-0.00183159,-0.02621870,0.12000000,-0.12000000,-0.01229746,-3.34579611,3.41735482,0.40391403,0.42884040,0.98534799,-0.22691527,
3306,-2.10313511,1.00447440,0.14652935,6.00000000,0.18369141,-0.20625000,0.31179312,0.95957619,-0.28191015,0.07000000,-0.00183159,0.00492903,0.12000000,-0.12000000,-0.01229746,-1.73311198,1.69995070,0.79411638,0.46040434,0.98290598,-0.07032210,
3316,0.66216797,-0.41768137,3.39306688,6.00000000,0.17241211,-0.21108398,0.27775329,0.51169825,-0.22682117,0.07000000,-0.00183159,0.08663718,0.12000000,-0.12000000,-0.01229746,0.03316126,-0.33161256,0.59516108,0.27760428,0.98290598,0.05922079,
3326,2.22558165,-1.19938827,6.20625401,6.00000000,0.18046875,-0.21914062,-0.05376884,-0.06902009,-0.04165347,0.07000000,-0.00183159,-0.04128554,-0.04878465,0.04941080,-0.01229746,1.41720724,-1.27932644,0.12566742,0.04347630,0.98046398,0.11230294,
3336,6.34959412,-0.41289297,13.77672005,6.00000000,-0.07089844,0.07895508,-0.14655668,-0.40573895,0.14614129,0.07000000,-0.00183159,-0.26461834,-0.12000000,0.12000000,-0.01229746,1.42767942,-0.52534413,-0.24660419,-0.33737850,0.98046398,0.05563399,
3346,4.98011065,0.78301078,20.53136063,6.00000000,-0.16918945,0.20302734,-0.37421685,-0.13296752,0.20253050,0.07000000,-0.00183159,-0.39132673,-0.12000000,0.12000000,-0.01229746,0.04886922,1.23220241,-0.15780765,-0.37390804,0.97924292,-0.05708722,
3356,0.65737957,0.70879054,20.12255096,6.00000000,-0.17563477,0.22558594,-0.27846852,-0.66279012,0.13513355,0.07000000,-0.00183159,-0.12884255,-0.12000000,0.12000000,-0.01229746,-1.72613060,2.13977361,-0.50525677,-0.17197190,0.97924292,-0.18576619,
3366,0.83694464,2.51521564,10.10161972,6.00000000,-0.17724609,0.21269532,-0.03049961,-0.23053981,-0.05434595,0.07000000,-0.00183159,-0.14582640,-0.12000000,0.12000000,-0.01229746,-2.97055030,3.44702530,-0.30780092,-0.18389370,0.97924292,-0.26794919,
3376,-2.49817824,-0.45598862,8.42567921,6.00000000,-0.17241211,0.21430664,0.22657974,0.32908493,-0.15964602,0.07000000,-0.00183159,-0.02458962,-0.10729299,0.10949600,-0.01229746,-3.94618964,4.01949310,0.14384782,0.03964408,0.97924292,-0.29252753,
3386,-2.32819009,-0.48711324,4.82958794,6.00000000,-0.15629883,0.19174805,0.05834108,0.72647351,-0.17932625,0.07000000,-0.00183159,-0.07325537,0.03012969,-0.03087965,-0.01229746,-4.65653801,4.90088415,0.55870640,0.12805843,0.97924292,-0.32156026,
3396,-4.43508768,0.08270678,4.78529501,6.00000000,0.04189453,-0.05478515,-0.00711831,1.34259033,-0.16973063,0.07000000,-0.00183159,-0.14494072,0.12000000,-0.12000000,-0.01229746,-3.85194159,4.32492590,1.11198545,0.32494789,0.98046398,-0.22682780,
3406,-0.22727798,-0.45718572,-0.29280668,6.00000000,0.16918945,-0.21430664,0.04231349,1.29317105,-0.04920916,0.07000000,-0.00183159,-0.08524123,0.12000000,-0.12000000,-0.01229746,-2.52898192,2.80474401,1.25060284,0.27275023,0.98046398,-0.10794489,
3416,0.28867248,-1.38733304,2.68558025,6.00000000,0.18369141,-0.20625000,-0.09964491,0.92464924,-0.04809782,0.07000000,-0.00183159,0.11225659,0.12000000,-0.12000000,-0.01229746,-0.97563910,0.60737455,1.02710700,0.19601780,0.98168492,0.01792603,
3426,2.85645390,-0.78997976,7.76009083,6.00000000,0.18530273,-0.22397462,-0.09738484,0.44127914,-0.00284311,0.07000000,-0.00183159,0.15703098,-0.08000191,0.08558223,-0.01229746,0.44854963,-0.95993108,0.61130595,-0.03980270,0.98168492,0.10022696,
3436,4.72153711,-0.26325536,16.35527420,6.00000000,-0.10634766,0.14018555,0.32319820,-0.07529120,0.03935394,0.07000000,-0.00183159,-0.15821803,-0.12000000,0.12000000,-0.01229746,0.05585054,0.52883476,0.12455967,-0.24013272,0.98290598,-0.00850282,
3446,2.45183372,-3.17699885,20.53136063,6.00000000,-0.16596679,0.21269532,0.10409340,-0.09792836,0.01012468,0.07000000,-0.00183159,0.24654120,-0.12000000,0.12000000,-0.01229746,-2.01236463,1.19729578,-0.02543019,-0.22683819,0.98290598,-0.12420011,
3456,0.95306343,-0.85941160,15.66095638,6.00000000,-0.18046875,0.21591797,-0.05692677,-0.28431341,0.04960163,0.07000000,-0.00183159,-0.09652776,-0.12000000,0.12000000,-0.01229746,-2.70176983,3.03163695,-0.20682333,-0.18245409,0.98656893,-0.23418213,
3466,-0.60795605,-1.29874766,11.39568615,6.00000000,-0.18530273,0.22719726,-0.23332267,0.16870216,0.08955540,0.07000000,-0.00183159,-0.09007951,-0.12000000,0.12000000,-0.01229746,-3.70358872,4.00029469,0.06193879,-0.09336042,0.98656893,-0.28878799,
3476,-1.73323083,1.35881627,7.76727343,6.00000000,-0.18208008,0.23041992,-0.09497590,0.46208280,0.06125135,0.07000000,-0.00183159,-0.10451527,-0.11649628,0.11712027,-0.01229746,-4.66875553,5.01782179,0.34723169,0.01718835,0.98778999,-0.34259015,
3486,-2.36889148,1.81730592,4.41778517,6.00000000,-0.17241211,0.20786133,0.01319307,1.05292630,-0.05454502,0.07000000,-0.00183159,-0.00974883,0.05635057,-0.05596586,-0.01229746,-5.59901619,5.61996031,0.84956646,0.12686928,0.98901093,-0.36270458,
3496,-4.22559500,1.79695523,4.01077080,6.00000000,0.07895508,-0.09667969,0.16702397,1.53070140,-0.11437007,0.07000000,-0.00183159,0.10212835,0.12000000,-0.12000000,-0.01229746,-5.04051065,4.69842672,1.33278143,0.31699663,0.98901093,-0.26951805,
3506,0.01812769,2.16446519,-0.01388217,6.00000000,0.17563477,-0.21430664,0.33929136,1.46470189,-0.09654827,0.07000000,-0.00183159,0.15828748,0.12000000,-0.12000000,-0.01229746,-3.50462127,2.97753191,1.43967795,0.24190566,0.99145293,-0.13729392,
3516,0.34852752,-0.47633931,3.80247545,6.00000000,0.17080078,-0.21269532,0.23608132,1.00867212,-0.01248676,0.07000000,-0.00183159,0.20778356,0.12000000,-0.12000000,-0.01229746,-1.81165183,1.12922800,1.14176333,0.15325733,0.99145293,-0.02506901,
3526,2.87321329,-1.39331853,9.09485817,6.00000000,0.17402343,-0.21752930,-0.04314812,0.39925319,0.13243833,0.07000000,-0.00183159,0.08444074,-0.11003399,0.11445890,-0.01229746,0.06457718,-0.32986721,0.61265224,-0.06112005,0.99145293,0.06169384,
3536,5.15847874,0.50528336,20.53136063,6.00000000,-0.16757813,0.20947266,-0.23352683,-0.33898991,0.35174477,0.07000000,-0.00183159,-0.11084020,-0.12000000,0.12000000,-0.01229746,-0.27925268,0.69115037,-0.06601453,-0.21232423,0.99145293,-0.04197796,
3546,5.65886688,0.72794414,19.47013092,6.00000000,-0.17080078,0.21752930,-0.28828776,-0.19923314,0.40471339,0.07000000,-0.00183159,-0.22167072,-0.12000000,0.12000000,-0.01229746,-1.54112577,2.28114533,-0.15469448,-0.48712158,0.99389493,-0.15739329,
3556,-0.56605750,-0.86898839,17.13219261,6.00000000,-0.18208008,0.21591797,-0.35274801,-0.48315841,0.27483866,0.07000000,-0.00183159,0.13434508,-0.12000000,0.12000000,-0.01229746,-3.40339208,2.95658755,-0.37729397,-0.11971071,0.99389493,-0.27104074,
3566,-0.49901989,2.38353467,10.03577900,6.00000000,-0.16918945,0.20786133,0.11242752,0.08067319,0.13884430,0.07000000,-0.00183159,0.01425785,-0.12000000,0.12000000,-0.01229746,-4.35285091,4.32492590,-0.04994544,-0.08161391,0.99511600,-0.33441523,
3576,-3.23319817,0.42388052,8.27005577,6.00000000,-0.17724609,0.21430664,0.07038032,0.45630577,0.05375285,0.07000000,-0.00183159,0.11526091,-0.01279567,0.01690973,-0.01229746,-5.48731518,5.10508823,0.31065869,0.12270342,0.99511600,-0.37989098,
3586,-3.13144469,-0.60562623,4.09097672,6.00000000,-0.03061523,0.03706055,0.05635267,0.93843204,0.04514024,0.07000000,-0.00183159,0.04774256,0.12000000,-0.12000000,-0.01229746,-5.35467005,5.20631695,0.75504589,0.23000246,0.99511600,-0.34484959,
3596,-1.53331506,0.49331236,0.76662761,6.00000000,0.16274413,-0.20625000,0.09532576,1.20229650,0.04673629,0.07000000,-0.00183159,0.15458150,0.12000000,-0.12000000,-0.01229746,-4.08057976,3.57443428,1.07424808,0.26268899,0.99755800,-0.20982836,
3606,-1.42916727,-1.62914741,0.90549129,6.00000000,0.17563477,-0.20302734,0.08221757,0.89583313,0.09091088,0.07000000,-0.00183159,0.35201859,0.12000000,-0.12000000,-0.01229746,-2.24274802,1.09257603,0.95313501,0.30784535,0.99755800,-0.05448088,
3616,0.99615908,-1.63273871,4.75536776,6.00000000,0.17241211,-0.21269532,-0.08381992,0.53838032,0.05662357,0.07000000,-0.00183159,0.32910088,0.12000000,-0.12000000,-0.01229746,-0.38920841,-0.68067843,0.65888417,0.16372445,0.99755800,0.06128455,
3626,2.71759009,-1.33346355,13.22844696,6.00000000,0.17563477,-0.21430664,-0.22012798,0.00115567,0.16598780,0.07000000,-0.00183159,0.17085038,-0.12000000,0.12000000,-0.01229746,1.00530958,-1.54636168,0.18676794,-0.03165565,0.99755800,0.11143932,
3636,7.58141088,-2.69337010,18.92305565,6.00000000,-0.16274413,0.20786133,0.37560645,-0.84987229,0.14982310,0.07000000,-0.00183159,0.11685295,-0.12000000,0.12000000,-0.01229746,-0.48869219,0.13089970,-0.54141867,-0.42675963,0.99511600,-0.06482323,
3646,-0.57922566,-3.10876417,20.53136063,6.00000000,-0.18369141,0.20947266,-0.36114141,-0.74919474,0.13750924,0.07000000,-0.00183159,0.10747148,-0.12000000,0.12000000,-0.01229746,-1.76801860,1.41371667,-0.67600524,-0.02412340,0.99511600,-0.17271411,
3656,-1.41480207,-0.52901173,13.85333443,6.00000000,-0.17563477,0.21269532,-0.26592052,-0.82545078,0.17207280,0.07000000,-0.00183159,-0.04306340,-0.12000000,0.12000000,-0.01229746,-2.91993594,3.10319543,-0.77208817,0.01536232,0.99755800,-0.28829253,
3666,-2.72083902,-0.59245813,7.19386196,6.00000000,-0.17402343,0.22236328,-0.04752695,-0.16438897,-0.00910220,0.07000000,-0.00183159,0.08896917,-0.07801405,0.08233346,-0.01229746,-4.11548662,3.81179905,-0.34362522,0.12692408,0.99755800,-0.32820761,
3676,-3.61986184,3.70273972,4.49439955,6.00000000,-0.11601563,0.15146485,-0.02386156,0.33108866,-0.07483243,0.07000000,-0.00183159,0.07035494,0.12000000,-0.12000000,-0.01229746,-4.63210392,4.40172052,0.13282844,0.26941836,0.99755800,-0.33406627,
3686,-4.47938013,2.14052320,2.60298038,6.00000000,0.17241211,-0.19658203,0.29941061,0.86185199,-0.14321084,0.07000000,-0.00183159,0.19541523,0.12000000,-0.12000000,-0.01229746,-3.31787109,2.66686320,0.64184028,0.43315119,0.99755800,-0.17914501,
3696,-0.98983121,1.91666532,-0.44603559,6.00000000,0.16918945,-0.20947266,0.39582539,0.50827610,-0.17101291,0.07000000,-0.00183159,0.30987293,0.12000000,-0.12000000,-0.01229746,-1.48876595,0.45902157,0.55074352,0.39714447,0.99755800,-0.03227277,
3706,0.93750113,-0.18783802,1.93858933,6.00000000,0.16918945,-0.21591797,0.18070875,0.21881826,-0.05691105,0.07000000,-0.00183159,0.24091080,0.12000000,-0.12000000,-0.01229746,0.19896753,-0.98960167,0.31700751,0.22250415,0.99755800,0.06941889,
3716,2.07594395,-1.44000554,9.74727821,6.00000000,0.17402343,-0.21430664,-0.18738452,-0.23581922,0.08897964,0.07000000,-0.00183159,0.08816873,-0.09184474,0.09596710,-0.01229746,1.42069805,-1.69646001,-0.07706621,0.02597223,0.99755800,0.11288181,
3726,4.10862112,1.30255258,20.53136063,6.00000000,-0.12890625,0.15952149,-0.10636900,-0.71329409,0.24760668,0.07000000,-0.00183159,-0.17980777,-0.12000000,0.12000000,-0.01229746,0.96516705,-0.32288590,-0.51815045,-0.15364596,0.99755800,0.00961796,
3736,2.64576411,0.30057913,20.53136063,6.00000000,-0.16596679,0.20625000,-0.39596468,-0.65423685,0.30439308,0.07000000,-0.00183159,-0.20247820,-0.12000000,0.12000000,-0.01229746,-0.88139129,1.55334306,-0.59882206,-0.27670929,0.99755800,-0.13836333,
3746,-0.42120832,2.82287073,18.20359802,6.00000000,-0.18530273,0.21914062,-0.25033894,-0.85545385,0.16685264,0.07000000,-0.00183159,0.12644513,-0.12000000,0.12000000,-0.01229746,-2.84488678,2.42426229,-0.76599967,-0.09295467,0.99511600,-0.25910079,
3756,-0.90842837,1.60661614,9.87177658,6.00000000,-0.18046875,0.22719726,0.23419341,-0.34564424,0.04034772,0.07000000,-0.00183159,-0.01848078,-0.12000000,0.12000000,-0.01229746,-3.97935081,4.06138134,-0.46505472,-0.05483234,0.99511600,-0.34177250,
3766,-3.42832565,-1.57527792,4.50397635,6.00000000,-0.17724609,0.22397462,0.20083797,0.12564439,-0.09354206,0.07000000,-0.00183159,0.10133202,-0.02597268,0.02990530,-0.01229746,-4.96022606,4.61465025,-0.04959843,0.14857879,0.99511600,-0.36857855,
3776,-4.96660042,0.17608064,2.08822703,6.00000000,-0.04511719,0.06284180,-0.03042817,0.73267728,-0.09934746,0.07000000,-0.00183159,0.12373656,0.12000000,-0.12000000,-0.01229746,-4.85201550,4.44535351,0.50019234,0.39189178,0.99511600,-0.31612894,
3786,-2.89322162,-0.09925255,0.88753474,6.00000000,0.16918945,-0.20141602,0.19215979,1.19088483,-0.05395265,0.07000000,-0.00183159,0.01010209,0.12000000,-0.12000000,-0.01229746,-3.12064886,3.08399677,0.98637474,0.45282984,0.99511600,-0.16126950,
3796,-0.73963714,-1.99665737,2.32525277,6.00000000,0.16918945,-0.20625000,0.06824253,0.81617820,0.01550660,0.07000000,-0.00183159,0.23184924,0.12000000,-0.12000000,-0.01229746,-1.32819557,0.56723201,0.86842453,0.38179222,0.99511600,-0.00607553,
3806,0.82856494,-2.17741966,5.64241934,6.00000000,0.17402343,-0.21269532,-0.14555089,0.40857813,0.01839279,0.07000000,-0.00183159,0.16838890,0.12000000,-0.12000000,-0.01229746,0.37699112,-0.92153382,0.54168034,0.20757794,0.99511600,0.09072655,
3816,4.20079803,-0.15072788,17.85883331,6.00000000,0.17724609,-0.21752930,-0.07007230,0.08805529,0.02209527,0.07000000,-0.00183159,0.00584081,-0.12000000,0.12000000,-0.01229746,1.68249738,-1.69296932,0.21173689,-0.16617399,0.99389493,0.14472914,
3826,8.24939346,-4.73442698,20.53136063,6.00000000,-0.16435547,0.20947266,0.22890194,-0.95253307,0.01483444,0.07000000,-0.00183159,0.08689584,-0.12000000,0.12000000,-0.01229746,-0.17104226,-0.11344640,-0.60538518,-0.42881685,0.99389493,-0.04828076,
3836,3.47894621,-2.02538776,20.42302322,6.00000000,-0.17241211,0.20463867,-0.16843146,-0.86448777,0.02962504,0.07000000,-0.00183159,-0.08655768,-0.12000000,0.12000000,-0.01229746,-1.52192700,1.80467045,-0.77348006,-0.30737227,0.99389493,-0.18565477,
3846,-1.92955542,0.65013260,13.01895523,6.00000000,-0.17885742,0.21269532,-0.23382971,-0.79204148,-0.00809167,0.07000000,-0.00183159,-0.17495513,-0.12000000,0.12000000,-0.01229746,-2.63370180,3.20267916,-0.77903718,-0.02196795,0.99389493,-0.28170866,
3856,-3.08236361,1.03081059,7.31237507,6.00000000,-0.17885742,0.22075196,-0.00750067,-0.12799291,-0.09116189,0.07000000,-0.00183159,-0.15225533,-0.06700054,0.06576261,-0.01229746,-3.71580577,4.21322489,-0.31959635,0.13650985,0.99389493,-0.32644257,
3866,-3.65816903,1.62457263,2.75261784,6.00000000,-0.10473633,0.12890625,0.13740173,0.47811088,-0.20864543,0.07000000,-0.00183159,-0.07027265,0.12000000,-0.12000000,-0.01229746,-4.30223656,4.52040291,0.24004212,0.29430777,0.99389493,-0.31785682,
3876,-4.01729918,1.63055813,1.25504470,6.00000000,0.16757813,-0.19497070,0.19831987,0.92934650,-0.25098854,0.07000000,-0.00183159,0.19393185,0.12000000,-0.12000000,-0.01229746,-3.26202035,2.61101270,0.72196227,0.45612001,0.99389493,-0.16878322,
3886,-1.16101670,1.50366545,-0.63637459,6.00000000,0.17563477,-0.21108398,0.30750170,0.73324370,-0.26724073,0.07000000,-0.00183159,0.32174933,0.12000000,-0.12000000,-0.01229746,-1.24791038,0.17802358,0.73311734,0.43752086,0.99389493,0.00150137,
3896,0.04206970,-0.63435662,2.28096008,6.00000000,0.18208008,-0.21108398,0.15875769,0.45579284,-0.21737787,0.07000000,-0.00183159,0.29399768,0.12000000,-0.12000000,-0.01229746,0.40666169,-1.37706482,0.53874648,0.31016177,0.99389493,0.10898875,
3906,1.04164886,-1.60520542,9.45159435,6.00000000,0.17724609,-0.22236328,-0.13878429,0.08577944,-0.09191748,0.07000000,-0.00183159,0.19221476,0.05993918,-0.05564132,-0.01229746,1.53588974,-2.16071773,0.21465954,0.12966242,0.99389493,0.15718630,
3916,3.14375806,0.43465441,17.80855560,6.00000000,0.09023438,-0.10634766,0.09395026,-0.25655872,0.05219766,0.07000000,-0.00183159,-0.16037060,-0.12000000,0.12000000,-0.01229746,2.35619450,-1.80816102,-0.11887099,-0.10530303,0.99389493,0.14960867,
3926,7.19594431,0.01566913,20.53136063,6.00000000,-0.16435547,0.20463867,-0.32536560,-1.12415063,0.25030944,0.07000000,-0.00183159,-0.16756544,-0.12000000,0.12000000,-0.01229746,0.35604715,0.20245820,-0.81716233,-0.43334636,0.99389493,-0.05636987,
3936,0.73997951,0.98412371,19.08586121,6.00000000,-0.17080078,0.21752930,-0.13977981,-1.09262288,0.11997078,0.07000000,-0.00183159,0.08473890,-0.12000000,0.12000000,-0.01229746,-1.59872162,1.31772363,-0.99267566,-0.15435460,0.99145293,-0.18672958,
3946,-1.12869489,1.65569735,11.45913219,6.00000000,-0.18369141,0.21269532,0.05462063,-0.81920981,0.02279522,0.07000000,-0.00183159,-0.05808914,-0.12000000,0.12000000,-0.01229746,-2.61973929,2.81870675,-0.86402488,-0.04633670,0.99145293,-0.27302682,
3956,-3.85808492,0.28142551,4.87148619,6.00000000,-0.18530273,0.21269532,0.17722152,-0.22382881,-0.06844948,0.07000000,-0.00183159,0.03035466,-0.02200489,0.02418770,-0.01229746,-3.69137144,3.58316112,-0.41576305,0.18497814,0.99145293,-0.30883449,
3966,-4.19806147,1.17805409,2.19117761,6.00000000,-0.04028320,0.04995117,-0.06417583,0.43750915,-0.10576240,0.07000000,-0.00183159,0.13507636,0.12000000,-0.12000000,-0.01229746,-3.91651869,3.46971464,0.18108180,0.36224324,0.99145293,-0.26762855,
3976,-3.96223259,0.35085738,0.28299883,6.00000000,0.17402343,-0.19980469,0.19031242,0.85252124,-0.09982836,0.07000000,-0.00183159,0.04544621,0.12000000,-0.12000000,-0.01229746,-2.13802838,1.98443925,0.64986706,0.51071537,0.99389493,-0.10758179,
3986,-1.43874407,-0.29557708,-0.18746179,6.00000000,0.17402343,-0.20786133,0.11773317,0.63356966,-0.02574244,0.07000000,-0.00183159,0.20360073,0.12000000,-0.12000000,-0.01229746,-0.26354474,-0.40840703,0.63929093,0.50558978,0.99389493,0.05419935,
3996,-0.17340845,-1.07129848,4.12569237,6.00000000,0.17885742,-0.21752930,-0.11823536,0.36716351,-0.03451716,0.07000000,-0.00183159,0.20117536,0.12000000,-0.12000000,-0.01229746,1.06290555,-1.71740401,0.44682181,0.35920632,0.99389493,0.13995898,
4006,3.06355214,-0.14354528,11.02578163,6.00000000,0.17563477,-0.21914062,-0.09590393,0.12114327,0.10707459,0.07000000,-0.00183159,-0.03005950,-0.08894132,0.09034424,-0.01229746,2.24798417,-2.13802838,0.21370365,-0.01189655,0.99389493,0.18338265,
4016,5.61337709,-2.85617590,20.53136063,6.00000000,-0.11440430,0.15629883,0.22956258,-0.35932472,0.26708809,0.07000000,-0.00183159,-0.15976995,-0.12000000,0.12000000,-0.01229746,1.42069805,-0.85870200,-0.18877754,-0.26726934,0.99389493,0.07248762,
4026,3.53999829,-0.20100613,20.53136063,6.00000000,-0.17402343,0.20786133,-0.24594073,-0.65503711,0.11156628,0.07000000,-0.00183159,-0.05890997,-0.12000000,0.12000000,-0.01229746,-0.93898714,1.12922800,-0.50513923,-0.31299645,0.99389493,-0.11725038,
4036,-0.26319101,0.97813821,16.28225136,6.00000000,-0.18208008,0.21269532,-0.24180810,-0.80352712,0.11811443,0.07000000,-0.00183159,-0.06997818,-0.12000000,0.12000000,-0.01229746,-2.26718259,2.49582076,-0.70569932,-0.10555786,0.99389493,-0.23522046,
4046,-1.38846576,1.23312068,9.20858288,6.00000000,-0.17724609,0.21914062,-0.12865010,-0.19170210,0.02642068,0.07000000,-0.00183159,-0.18657847,-0.12000000,0.12000000,-0.01229746,-3.29518175,3.92000961,-0.34078559,-0.01385526,0.99389493,-0.30085489,
